svm_type c_svc
kernel_type rbf
gamma 0.00411522633744856
nr_class 23
total_sv 2136
rho -0.05084516701873514 0.013946047974700173 0.01575212061387656 0.17048778380628749 0.21799812029869103 0.01796311159151683 -0.2342731290314036 0.2953534233747801 -0.06481752439914062 0.03380953850395487 0.08374011415210843 -0.038215223529492755 -0.6082510719702693 0.05086682215255144 -0.4022804483599298 0.08373905053343134 0.432722509468976 -0.009006495982723853 0.2491130823758224 -0.21473030554804895 0.16656651305003817 0.07843110207080918 0.07961453129353004 -0.019678116156276685 0.182875943986119 0.0836723217415707 0.1564358840569521 -0.1135162956340292 0.2808011077991153 0.039201265249315366 0.026640975211211854 0.10968128160050879 -0.14781048983701608 -0.8297551418313636 -0.04336648467927423 -0.5647710734284899 0.10987383407488092 0.15400672466269696 0.03289888214595309 0.3017990011286463 -0.22736399332328083 0.2223937087866106 0.2273871654440913 -0.019284513397233475 0.17486401384682368 0.21546799035487374 0.05930076430487414 -0.18411771061792295 0.13714586698108017 -0.09718301632733123 0.10967882695582713 -0.008993483535781771 -0.016204114972752634 -0.5568176706186654 0.010065338479192526 -0.34884701175468463 0.09414646109096501 0.31234660008076903 -0.028865450714075504 0.22190176831522612 -0.22000364578403064 0.08986537136531705 0.22716431096728132 0.23400066973131983 0.1476781318458029 0.09123172914651015 -0.05070091905260435 0.1388164726336951 -0.1779150630421987 -0.09503397109100231 -0.08518052302407632 -0.08117131999985204 -0.3553027706416998 -0.031071617208984142 -0.14931011354564439 0.07304588797449536 0.255369153738996 -0.06881371785254092 0.06636884826736673 -0.14117655435371465 0.13246746639584678 0.19429715485321938 0.21536894711389726 -0.06904948095945385 -0.2678697911723079 0.008593909425367568 -0.2737125191023255 0.08483628002843266 -0.1628866369789622 -0.16387488147730137 -0.5169050279427007 -0.05761913221240911 -0.35802432552221136 0.13359026331841767 0.2819162354456225 -0.23460855514857482 0.014221742493763111 -0.3962319721343652 0.0743536586732818 -0.024088626889245606 -0.023743270477682103 -0.15820586730636735 -0.05300085818896571 -0.36653677509822574 -0.41166664214654325 -0.1417231382600882 -0.3894086882242521 -0.6841071040088244 -0.23995799932378797 -0.42331291736371734 -0.1351387851178638 0.08179250880004928 -0.34438074597351687 -0.07813794257456172 -0.4788641464072003 0.13359662268123523 -0.1358899289285056 -0.1748407329348212 0.02139400535611047 -0.20692016461816937 -0.06642054934281809 -0.12192019430190659 -0.11698503189387184 -0.43465078069916285 0.006270125303165064 -0.24250844892151824 -0.0985622669069865 0.22120461016308543 -0.16596342573423026 0.08630520604084807 -0.29557625569329493 0.12634075159503352 0.04328660926596676 0.3820720196554502 0.11849879195223278 0.18334260670807487 0.14800611567865837 -0.05823813841857722 -0.8608402038042611 0.18732694436131644 -0.44764514284264073 0.1965454847557843 0.3282965019862285 0.1388157141975199 0.38595183780866865 -0.06282874629782215 0.2357648527925685 0.2596358692164688 -0.15678064427587501 -0.18358155110581922 -0.10644556530178235 -0.43917592416124535 -0.6430258922543478 -0.2295503285880647 -0.4816938732798032 0.022091791118060592 0.20049700977835683 -0.14414108275007453 0.018927450046011016 -0.45410127188304356 0.12134176514637705 0.05500989327026324 0.15712494400214463 0.14845178603324571 -0.11989895324812386 -0.40248564127456216 0.10715621690158646 -0.25321289095602906 0.295916886809973 0.5250083436230766 0.11380900918632196 0.27052973114602036 -0.18431526250042432 0.295609785742235 0.35041349284899953 0.07382158236942639 -0.03523861710709248 -0.4865941305076644 0.048425232379805734 -0.2799910107245266 0.40410991357208886 0.4242128432478102 -0.09314430281713011 0.11772209803768961 -0.3237249693010353 0.237305819647354 0.10402946610195979 -0.03664738391148162 -0.43341140522460636 -0.028968322162420394 -0.21340454118496208 0.2178360287679672 0.282907742953504 -0.16653646077540704 0.10293249907188814 -0.15449304449835757 0.2800295841644078 0.19974195907485473 -0.3544192736943251 0.04590523163794301 -0.06227527465925229 0.14842397069923668 0.5274856086686178 0.0723737990777553 0.2636321128705091 -0.1551585210754344 0.2543175974566349 0.4745578717660296 0.4988793089699362 0.3714079245981618 0.48262369317711123 0.7793413803204076 0.4596872341902868 0.714080926520926 0.33512873722352154 0.4627952880143072 0.6283654488860931 -0.2372076320553428 0.09537049234359281 0.38574535402491683 -0.050161507175177034 0.32376707001154076 -0.24341095565732937 0.15242605356750008 0.11922424244703372 0.3187058837630316 0.5300586081010384 0.19883094570142396 0.5104169004750905 0.22251113065493466 0.3117333291014508 0.4491387164386949 0.3276790319745486 -0.46224029294458646 -0.026411423410163996 -0.3490097709204793 0.2599990576990547 0.03693519930395651 -0.443837729818799 -0.35460338375717687 -0.5346266937048886 -0.12360461955567915 -0.282862705073972 0.21192796175457876 -0.1775873790946223 0.3289674982282044 0.20833499190299248 -0.35889208259372324 0.04088663540049784 0.005460205860097228 0.3843026748310284 0.47564620221969495 -0.04889059320664965
label 1 2 3 4 5 6 7 8 9 10 11 12 13 14 15 16 17 18 19 20 21 22 23
probA -2.6099412241759055 -5.303591220361141 -4.216450606615882 -4.017441256937385 -2.948595178521988 -4.079993267391822 -2.4279108079431952 -4.055114500245221 -3.7299330858664423 -3.6696007554628944 -5.029759032908151 -3.901495947171398 -3.1677705159120912 -3.343358150609581 -3.1432026782426763 -3.971830320598423 -2.767660448837826 -4.1108997439599 -4.731992715917504 -4.710663739678908 -4.7060455051489285 -3.5724708748629777 -5.6125974828890195 -3.818149096188582 -3.1532638347277064 -0.9042559415264615 -3.8018015965847196 0.8122266926604054 -2.538539438327716 -3.6289352770834475 -3.09325278204771 -3.77461009725369 -3.2743783832066997 -2.09637518295552 -3.2151336424572956 -1.0776537548950604 -3.287111971444485 -1.0529073962630244 -3.6480892472764306 -2.940901749085656 -3.927142117608347 -4.261928443498778 -2.442872837878978 -4.760512947452646 -4.681609566695014 -4.410244762653734 -5.475947898386049 -4.784383667920846 -3.4186509632934827 -4.727305027281939 -4.796104651761553 -5.016910639140109 -5.166913577795748 -4.770450815678063 -5.191869295305933 -5.002129390925793 -5.121176671906436 -5.828882803533233 -4.710242066336346 -3.792294943704265 -5.739134295264601 -4.9860341801637 -4.457144717633815 -1.9486666036985554 -3.842095325442655 -4.96416619345826 -4.272532741683797 -4.1491425932238135 -4.61026620280925 -2.306467194551918 -3.0041951091961296 -4.533424221153861 -4.97112011890351 -4.391030827006788 -4.314019200492893 -2.6534483371408975 -4.360544641124563 -3.636466749608781 -3.2616531728234084 -4.363974219135546 -4.590348347294229 -3.460119166316502 -3.532226081219622 -3.7882766326705397 -4.207157180595849 -3.765797751236379 -4.100157612366686 -0.5110518800745095 -3.2255269068377914 -5.470337185184809 -4.82260587418246 -4.4277669658895356 -4.247988256208369 -1.5412610805473195 -3.837784732875742 -3.4092425973122733 -3.3098656481079485 -4.980368487683384 -3.7748870946442463 -2.3206305599096564 -3.073562073345158 -1.4055596109490456 -4.785168107540177 -4.550453203455543 -3.1272452079747985 -3.3454258461302824 -4.629983803691068 -3.0341588013168335 -4.914326478897392 -1.2037345085432514 -2.2055423121594537 -0.9787217746251291 -3.3186757817919745 -3.940624887276564 -3.523991208386606 -2.7577321684225833 -2.752163681533279 -4.642635190516657 -4.189982331887749 -4.670293019165923 -3.442020998909982 -3.8627671902415552 -5.8733229408454495 -5.484653125500621 -5.275636384639132 -4.728077509629399 -3.74342173287619 -4.370777215287495 -4.891616319622875 -5.802280697509498 -5.090763487594653 -4.82946385423013 -4.165719930358762 -2.7021603847089635 -4.122020568836196 -3.626658488436341 -5.247527983979321 -3.239113318994654 -1.8895104809001046 -3.4580690767907476 -1.011265196400782 -4.2420686600718795 -1.0150708524260446 -4.581698927075058 -4.260680049577105 -3.6294282072789597 -4.81550749523641 -3.2952427664856088 -2.486894476248643 -4.040534215909832 -4.017963835048665 -3.454236327308126 -3.360721674167637 -4.056621687360272 -3.5560296884052907 -3.802950544651732 -4.49504711598171 -4.524430209718189 -5.032666336568055 -4.402194668219616 -4.113660757550708 -2.4594320908433955 -3.8539635457352395 -4.684915252397427 -3.397243100975689 -5.200929541984605 -4.388143275175686 -4.515653201997701 -4.548572145191251 -4.294057874537046 -5.0046670340575465 -5.5696821463283035 -5.178754659778509 -5.642386725974958 -2.9375658948918386 -3.2785842144919624 -4.4420535294852685 -4.545614881989119 -4.920111271580286 -3.9357538802096186 -0.27847007128965073 -4.163806907499675 -3.7471593870671454 -3.5780791836975467 -4.419710412836778 -4.667550110471008 -2.0714220385779045 -5.6569627435907 -5.000318829618076 -5.511324728594647 -4.663350001882377 -3.2149580473065855 -4.63902965147033 -2.2336770788319145 -4.853556444250256 -4.535474725843119 -3.708927309621825 -3.9211141893483643 -4.876447986671064 -4.555495057480424 -2.7570831845010173 -6.424467067236914 -4.556876749733424 -5.512043992401236 -5.6282430143224795 -4.807929619382742 -5.362847066854886 -3.493936264304236 -4.004800489121403 -2.742836149354759 -4.666030061052577 -2.816643288104076 -4.9491587859857376 -5.342024570016953 -4.782754899417753 -4.968106731159984 -4.805240825841664 -4.605087484778898 -4.87953739730593 -4.881260745233334 -5.460270666934569 -4.33993662701746 -4.906244632044788 -4.977438563552743 -4.323657678733564 -4.720288084835973 -1.3124235351297424 -4.2450493394099365 -4.586005167494059 -3.8188637291873144 -4.4956889233085295 -3.927523308672186 -4.188191941679613 -3.5690448803255945 -3.836771857721238 -4.604974746299505 -4.3867432910823325 -2.119797115768479 -4.519828642156468 -4.643220242602104 -3.239575595834483 -5.201957330142201 -3.294513724342264 -4.116500395325476 -4.72559150517975 -3.8105753177897546 -4.008004161951815 -5.35596917637264 -4.836499851985223 -3.2004770347246834 -4.55187213610995 -4.535872179452649 -3.730245184046301
probB 0.09839107645073837 -0.022389258522266423 -0.34513528141280736 -0.021434952567127935 0.31875654509109114 0.2478088747740549 0.17516013079810544 -0.028424887091637333 0.10012832555553036 0.44128680033751766 -0.3584079896427746 -0.08109880283940976 -0.33035331014308367 -0.1644675200134531 0.3983957159441635 0.09886909977910863 -0.0639050172208558 -0.25840344126033893 0.0533999920112638 -0.1795133166127048 -0.16022401637745615 0.42228430382771814 0.13274217548704986 0.13607791744264275 0.1072097762736446 0.2800679308346328 0.20324474737451578 0.17034730640066578 0.21415885837160975 -0.16339204084533104 0.46900793564016924 -0.3940559330234269 0.07040194234149498 -0.3146051280980417 0.1205567757475364 0.096239522479666 0.152207569224753 0.3183341124425318 -0.14726104597939757 -0.11885172389950423 -0.29191247156369377 -0.42371850075095613 0.1819795467682867 0.1469516518005668 -0.2770763091623668 -0.15258428211540692 -0.2666229647315666 0.01749963867837295 0.2001764061438807 0.03955793911223408 -0.14703207658984005 -0.18435017813369411 -0.1690799073130619 -0.08632601331127367 0.20412044556602446 0.039569088099678955 -0.4904023597979537 -0.7944309107218683 0.16679287967552853 -0.02533386393746366 0.1806900369179286 -0.1072729404708815 -0.17358688288829752 0.1537017984530346 -0.07690886192022406 -0.38892674258134907 -0.25427867090491435 -0.2397664981116322 0.010480891369256869 0.48430601772649695 -0.0037671624539055383 -0.04849378297240542 -0.49795454910803416 0.038444548970986904 -0.40919231283562385 0.13062690067041588 -0.35597270857992463 -0.03383256232707968 0.24636623743239466 -0.19490816060555335 -0.3440518036021186 0.04461346483236714 -0.36842198887793104 0.052199631756324374 -0.32685090045698123 -0.037643717405527216 -0.0736531120695827 -0.11914910123081639 -0.027309675083325782 -0.020215341715345288 -0.5905682762276782 -0.17179217670871857 -0.29088305824543537 -0.13200899801331378 -0.3947622266259492 0.14389771123096862 0.11255460636110222 0.15303597326041268 -0.4930307993034012 0.1269775384547536 -0.24833391670863633 -0.4272705975794316 -0.08482958594439904 0.15119202554544445 0.7731812691834907 -0.14500893032729917 0.3072683102837347 -0.7210304625553807 -0.07480973407262434 -0.20171629069422112 0.05849684962309314 -0.04365265121960038 0.371980518137246 0.23747984295450708 -0.4641230749798443 -0.3695893455692071 0.3241122783846048 -0.5541898921224769 0.1735222389250444 0.4049056632465958 0.139140793146136 0.05756328785160901 0.14902208983565426 -1.1427153122809315 -0.44294594970907614 -0.6015995028310948 0.06356611223568905 -0.5357476670081154 0.540903689441116 -0.18731383111118638 0.4476436846373066 0.49334396100198785 0.41706342038171196 0.2706283747128292 0.07050736463283104 0.5865106606171261 -6.98766236181732E-5 0.12225974471098379 -0.09124768259298745 -0.003271070642483043 0.05183980673680484 0.565163799883075 0.16162386710514912 0.026962235446312502 0.0964877530076986 -0.34928833396508985 0.036535380478395135 0.47345222243086715 -0.250783168456501 0.5118301886128934 -0.3201502403074901 -0.004497385424847802 -0.7121772954832074 -0.07982635427914854 -0.29747770413945934 -0.11183087422287294 -0.3906351713823194 -0.1899011878756893 0.035227979288240195 -0.004261237586442265 -0.6178951763971954 0.17259034024412864 0.14681228109679725 -0.3163297738266965 0.024177873662212003 -1.1112275996383973 -0.32760129585230446 -0.3204424474929973 -0.23103662856686988 -0.5404300697538525 -0.3255141633756387 -0.4864442833124649 0.1434344668709967 -0.21703571521071155 0.12382427418828482 -0.41088632346511217 -0.12922144427819235 -0.8967458947642586 -0.6361823407658436 -0.6165022548322642 0.11669338189325666 -0.9451728289264968 -0.2692232886941332 0.24522563521177188 -0.1648520572689546 -0.5649372715264159 0.21889798794232085 -0.3056460763676839 -0.2914812292465978 0.37123380289163743 0.028279200442114894 -0.08685292832289798 -0.3351473639034509 0.1725483151405575 0.21478380206524234 0.027169438862498826 0.10110417261177654 0.16237804804931927 -0.7235805922912976 -0.0072550124623091804 -0.10280347511485156 -0.01151000186671522 -0.7293939982117652 0.049577563403016535 -0.6109461865943786 0.11640266069653121 -0.3919937169517533 0.022227246464067933 0.3885807490647127 0.30577629943819556 0.7716072144494929 0.6531294649195569 0.628618048202294 0.7771746612257476 0.2076785764640298 0.49663338987872396 1.1649892795232377 0.1664192458938025 0.28724476255522385 -0.1958495843309366 -0.11062956863717184 -0.049407555294031624 0.12929862899862674 -0.07824144061368173 0.6040684831626283 0.6246122863394526 0.15915552162719174 0.11882751035605972 -0.006713888768954783 -0.1607148447017958 0.04510282523904797 0.7622795243775112 -0.6565168532134754 0.6578831273206479 0.4653677663035648 -0.03842013223419545 0.05315758534524633 0.25254088613284886 0.5408008842373505 1.0417167298179428 -0.3475048150880281 0.14880935556517327 0.6873619063812462 0.07537726311373139 0.06501887544190983 -0.3980914104443292 0.13167422179689234 0.11808334416070247 -0.05738468131272784 0.1449580159430341 -0.36674485383538685 -0.06664029667466886 -0.006870415241297701
nr_sv 97 98 80 91 95 100 98 100 96 93 79 88 100 99 89 100 100 100 89 80 95 77 92
SV
1.0 1.0 1.0 1.0 1.0 1.0 1.0 1.0 0.8735353916872639 1.0 1.0 1.0 1.0 1.0 1.0 1.0 1.0 1.0 1.0 1.0 1.0 1.0 3:1.0 4:1.0 7:1.0 8:1.0 15:1.0 19:1.0 23:1.0 29:1.0 30:1.0 33:1.0 36:1.0 49:1.0 52:1.0 54:1.0 60:1.0 62:1.0 63:1.0 64:1.0 73:1.0 74:1.0 88:1.0 90:1.0 100:1.0 108:1.0 112:1.0 120:1.0 122:1.0 128:1.0 133:1.0 134:1.0 136:1.0 139:1.0 140:1.0 141:1.0 148:1.0 149:1.0 151:1.0 165:1.0 175:1.0 184:1.0 185:1.0 192:1.0 193:1.0 198:1.0 199:1.0 200:1.0 204:1.0 211:1.0 213:1.0 214:1.0 218:1.0 228:1.0 231:1.0 233:1.0 236:1.0 239:1.0 
1.0 1.0 0.3953367274718536 1.0 1.0 0.4290643637041114 1.0 1.0 1.0 1.0 0.20841006408702553 1.0 1.0 1.0 1.0 0.60390860703665 1.0 0.0 1.0 1.0 0.1815456870613005 1.0 0:1.0 3:1.0 4:1.0 6:1.0 7:1.0 8:1.0 9:1.0 14:1.0 15:1.0 16:1.0 20:1.0 23:1.0 25:1.0 27:1.0 28:1.0 32:1.0 33:1.0 37:1.0 40:1.0 41:1.0 43:1.0 49:1.0 52:1.0 53:1.0 60:1.0 63:1.0 64:1.0 68:1.0 69:1.0 70:1.0 73:1.0 76:1.0 81:1.0 88:1.0 89:1.0 91:1.0 100:1.0 102:1.0 103:1.0 106:1.0 108:1.0 109:1.0 118:1.0 119:1.0 120:1.0 121:1.0 126:1.0 127:1.0 128:1.0 131:1.0 133:1.0 136:1.0 139:1.0 140:1.0 143:1.0 146:1.0 147:1.0 148:1.0 151:1.0 161:1.0 162:1.0 163:1.0 164:1.0 166:1.0 173:1.0 175:1.0 176:1.0 183:1.0 184:1.0 185:1.0 201:1.0 203:1.0 204:1.0 205:1.0 210:1.0 213:1.0 214:1.0 218:1.0 224:1.0 228:1.0 229:1.0 231:1.0 232:1.0 233:1.0 236:1.0 239:1.0 241:1.0 242:1.0 
1.0 1.0 0.4032041387914072 1.0 1.0 1.0 1.0 1.0 0.7791437050786758 1.0 1.0 1.0 1.0 1.0 1.0 1.0 1.0 1.0 1.0 1.0 1.0 1.0 3:1.0 4:1.0 6:1.0 8:1.0 9:1.0 10:1.0 15:1.0 29:1.0 44:1.0 49:1.0 51:1.0 52:1.0 64:1.0 70:1.0 73:1.0 76:1.0 77:1.0 90:1.0 91:1.0 102:1.0 103:1.0 105:1.0 108:1.0 109:1.0 112:1.0 116:1.0 117:1.0 118:1.0 120:1.0 128:1.0 131:1.0 136:1.0 139:1.0 145:1.0 146:1.0 150:1.0 151:1.0 164:1.0 175:1.0 183:1.0 185:1.0 189:1.0 198:1.0 199:1.0 200:1.0 204:1.0 205:1.0 206:1.0 213:1.0 220:1.0 228:1.0 231:1.0 233:1.0 234:1.0 235:1.0 236:1.0 
1.0 0.0 1.0 1.0 1.0 1.0 0.9532546666181699 1.0 1.0 1.0 1.0 1.0 0.0 1.0 0.9416575939049072 1.0 1.0 1.0 1.0 0.0 1.0 1.0 2:1.0 3:1.0 4:1.0 6:1.0 7:1.0 8:1.0 9:1.0 14:1.0 15:1.0 20:1.0 21:1.0 23:1.0 25:1.0 26:1.0 27:1.0 28:1.0 31:1.0 32:1.0 33:1.0 35:1.0 39:1.0 41:1.0 43:1.0 48:1.0 49:1.0 52:1.0 56:1.0 57:1.0 59:1.0 60:1.0 62:1.0 63:1.0 64:1.0 65:1.0 70:1.0 73:1.0 76:1.0 77:1.0 81:1.0 82:1.0 83:1.0 84:1.0 90:1.0 91:1.0 92:1.0 97:1.0 100:1.0 103:1.0 104:1.0 106:1.0 108:1.0 109:1.0 110:1.0 111:1.0 112:1.0 113:1.0 114:1.0 115:1.0 116:1.0 117:1.0 119:1.0 120:1.0 122:1.0 123:1.0 126:1.0 127:1.0 128:1.0 132:1.0 135:1.0 136:1.0 138:1.0 139:1.0 140:1.0 142:1.0 143:1.0 146:1.0 147:1.0 148:1.0 149:1.0 151:1.0 152:1.0 154:1.0 155:1.0 156:1.0 162:1.0 163:1.0 164:1.0 165:1.0 173:1.0 175:1.0 177:1.0 178:1.0 180:1.0 184:1.0 185:1.0 189:1.0 192:1.0 195:1.0 196:1.0 197:1.0 201:1.0 202:1.0 204:1.0 205:1.0 207:1.0 210:1.0 211:1.0 213:1.0 214:1.0 218:1.0 220:1.0 222:1.0 223:1.0 227:1.0 228:1.0 230:1.0 231:1.0 232:1.0 233:1.0 234:1.0 237:1.0 238:1.0 241:1.0 
0.4914726451166681 0.5522649441346994 0.0 0.0 0.7603417621080635 0.0 1.0 0.15027974622611445 0.0 0.0 0.0 0.3276263925088277 0.0 0.7067201135924094 1.0 0.0 1.0 0.0 0.0 0.0 0.0 0.0 2:1.0 3:1.0 4:1.0 6:1.0 8:1.0 9:1.0 14:1.0 15:1.0 16:1.0 18:1.0 22:1.0 23:1.0 25:1.0 28:1.0 30:1.0 32:1.0 35:1.0 43:1.0 44:1.0 49:1.0 52:1.0 60:1.0 64:1.0 66:1.0 67:1.0 70:1.0 73:1.0 76:1.0 79:1.0 81:1.0 82:1.0 83:1.0 87:1.0 90:1.0 91:1.0 92:1.0 96:1.0 97:1.0 98:1.0 99:1.0 100:1.0 103:1.0 105:1.0 106:1.0 108:1.0 109:1.0 112:1.0 119:1.0 120:1.0 123:1.0 126:1.0 128:1.0 131:1.0 136:1.0 139:1.0 146:1.0 147:1.0 149:1.0 152:1.0 154:1.0 155:1.0 156:1.0 171:1.0 173:1.0 175:1.0 177:1.0 178:1.0 180:1.0 184:1.0 185:1.0 192:1.0 193:1.0 201:1.0 204:1.0 205:1.0 207:1.0 213:1.0 214:1.0 219:1.0 220:1.0 228:1.0 231:1.0 232:1.0 233:1.0 236:1.0 237:1.0 238:1.0 241:1.0 243:1.0 
1.0 0.3636282017310581 0.6223071084671311 1.0 1.0 0.24618933189973993 1.0 1.0 0.0 1.0 1.0 0.2540929146997861 1.0 1.0 1.0 1.0 1.0 1.0 0.8399695651442496 1.0 0.5604786984806 0.0 1:1.0 3:1.0 4:1.0 6:1.0 7:1.0 8:1.0 9:1.0 10:1.0 11:1.0 14:1.0 15:1.0 19:1.0 30:1.0 32:1.0 33:1.0 38:1.0 43:1.0 44:1.0 45:1.0 49:1.0 50:1.0 51:1.0 52:1.0 59:1.0 60:1.0 62:1.0 63:1.0 64:1.0 66:1.0 70:1.0 73:1.0 76:1.0 81:1.0 89:1.0 91:1.0 92:1.0 97:1.0 98:1.0 100:1.0 102:1.0 103:1.0 105:1.0 106:1.0 108:1.0 109:1.0 112:1.0 115:1.0 117:1.0 120:1.0 125:1.0 126:1.0 127:1.0 128:1.0 136:1.0 139:1.0 140:1.0 142:1.0 145:1.0 146:1.0 148:1.0 149:1.0 151:1.0 152:1.0 156:1.0 164:1.0 175:1.0 177:1.0 183:1.0 185:1.0 189:1.0 194:1.0 198:1.0 200:1.0 201:1.0 204:1.0 205:1.0 206:1.0 211:1.0 213:1.0 214:1.0 217:1.0 218:1.0 220:1.0 224:1.0 228:1.0 231:1.0 232:1.0 233:1.0 234:1.0 235:1.0 236:1.0 240:1.0 
0.9686983842093138 0.0 0.0 0.0 1.0 0.0 0.6184098250924884 0.0 0.0 0.0 0.0 0.0 0.0 0.07806712313913997 0.8865517587719628 0.0 0.12302629833338445 0.0 0.0 0.0 0.9348186652073994 0.0 3:1.0 4:1.0 7:1.0 23:1.0 25:1.0 27:1.0 28:1.0 30:1.0 31:1.0 32:1.0 39:1.0 56:1.0 60:1.0 64:1.0 73:1.0 81:1.0 82:1.0 83:1.0 92:1.0 100:1.0 103:1.0 117:1.0 120:1.0 127:1.0 128:1.0 139:1.0 146:1.0 147:1.0 148:1.0 151:1.0 156:1.0 173:1.0 175:1.0 177:1.0 183:1.0 185:1.0 201:1.0 204:1.0 212:1.0 213:1.0 214:1.0 219:1.0 220:1.0 226:1.0 228:1.0 231:1.0 237:1.0 238:1.0 241:1.0 
0.0 0.0 0.0 0.0 0.12432040238627351 0.0 0.0 0.0 0.0 0.38045936351138815 0.0 0.0 0.39204916539544105 0.0 0.0 0.0 0.0 0.0 0.0 0.0 0.0 0.0 3:1.0 4:1.0 6:1.0 14:1.0 23:1.0 27:1.0 32:1.0 33:1.0 37:1.0 43:1.0 49:1.0 51:1.0 52:1.0 56:1.0 64:1.0 70:1.0 73:1.0 76:1.0 81:1.0 82:1.0 83:1.0 90:1.0 92:1.0 99:1.0 100:1.0 103:1.0 117:1.0 119:1.0 120:1.0 122:1.0 126:1.0 127:1.0 128:1.0 131:1.0 139:1.0 140:1.0 145:1.0 146:1.0 147:1.0 149:1.0 150:1.0 155:1.0 156:1.0 164:1.0 175:1.0 177:1.0 183:1.0 185:1.0 201:1.0 204:1.0 205:1.0 208:1.0 210:1.0 211:1.0 219:1.0 220:1.0 228:1.0 231:1.0 232:1.0 233:1.0 234:1.0 235:1.0 237:1.0 238:1.0 241:1.0 
1.0 0.0 0.0 0.0 1.0 0.0 1.0 0.0 0.0 0.0 0.0 0.0732330647301917 0.0 0.0 1.0 0.0 1.0 0.0 0.0 0.0 0.0 0.0 2:1.0 3:1.0 4:1.0 6:1.0 8:1.0 9:1.0 14:1.0 15:1.0 25:1.0 26:1.0 28:1.0 30:1.0 31:1.0 32:1.0 33:1.0 35:1.0 43:1.0 45:1.0 46:1.0 49:1.0 53:1.0 54:1.0 56:1.0 60:1.0 64:1.0 65:1.0 69:1.0 73:1.0 74:1.0 76:1.0 81:1.0 82:1.0 83:1.0 84:1.0 91:1.0 92:1.0 100:1.0 103:1.0 105:1.0 106:1.0 108:1.0 119:1.0 120:1.0 121:1.0 122:1.0 123:1.0 126:1.0 128:1.0 132:1.0 136:1.0 139:1.0 147:1.0 148:1.0 155:1.0 156:1.0 164:1.0 170:1.0 171:1.0 173:1.0 175:1.0 183:1.0 184:1.0 185:1.0 192:1.0 193:1.0 201:1.0 203:1.0 205:1.0 210:1.0 212:1.0 213:1.0 214:1.0 218:1.0 220:1.0 228:1.0 231:1.0 232:1.0 233:1.0 234:1.0 235:1.0 237:1.0 238:1.0 243:1.0 
1.0 0.0 0.0 0.0 0.0 0.9952745631239904 0.0 0.0 0.0 0.0 0.0 0.0 1.0 1.0 0.0 0.0 0.0 0.0 0.0 0.0 0.0 0.3505291684707378 0:1.0 2:1.0 3:1.0 4:1.0 6:1.0 7:1.0 8:1.0 9:1.0 11:1.0 14:1.0 15:1.0 23:1.0 24:1.0 25:1.0 30:1.0 32:1.0 33:1.0 34:1.0 35:1.0 37:1.0 38:1.0 43:1.0 44:1.0 47:1.0 49:1.0 52:1.0 55:1.0 64:1.0 66:1.0 67:1.0 70:1.0 73:1.0 76:1.0 77:1.0 81:1.0 82:1.0 91:1.0 92:1.0 95:1.0 97:1.0 100:1.0 103:1.0 105:1.0 109:1.0 116:1.0 120:1.0 122:1.0 126:1.0 127:1.0 128:1.0 131:1.0 136:1.0 139:1.0 140:1.0 142:1.0 145:1.0 146:1.0 147:1.0 154:1.0 155:1.0 156:1.0 161:1.0 164:1.0 173:1.0 175:1.0 177:1.0 183:1.0 184:1.0 185:1.0 192:1.0 202:1.0 203:1.0 204:1.0 210:1.0 213:1.0 214:1.0 217:1.0 218:1.0 219:1.0 220:1.0 228:1.0 231:1.0 232:1.0 233:1.0 235:1.0 236:1.0 238:1.0 242:1.0 243:1.0 
1.0 1.0 1.0 1.0 1.0 0.6303842268448259 1.0 1.0 1.0 1.0 1.0 1.0 1.0 1.0 0.5802231682644327 1.0 1.0 1.0 1.0 0.5464152074522148 1.0 1.0 0:1.0 2:1.0 3:1.0 4:1.0 5:1.0 6:1.0 7:1.0 8:1.0 9:1.0 11:1.0 14:1.0 15:1.0 17:1.0 18:1.0 20:1.0 21:1.0 23:1.0 24:1.0 25:1.0 26:1.0 28:1.0 30:1.0 31:1.0 32:1.0 33:1.0 35:1.0 36:1.0 37:1.0 43:1.0 44:1.0 46:1.0 49:1.0 52:1.0 53:1.0 57:1.0 59:1.0 60:1.0 62:1.0 64:1.0 67:1.0 69:1.0 71:1.0 76:1.0 77:1.0 79:1.0 81:1.0 83:1.0 88:1.0 90:1.0 91:1.0 92:1.0 97:1.0 99:1.0 100:1.0 102:1.0 103:1.0 104:1.0 105:1.0 106:1.0 108:1.0 109:1.0 112:1.0 113:1.0 114:1.0 115:1.0 116:1.0 117:1.0 118:1.0 120:1.0 122:1.0 126:1.0 127:1.0 128:1.0 132:1.0 133:1.0 136:1.0 139:1.0 140:1.0 141:1.0 142:1.0 145:1.0 146:1.0 147:1.0 148:1.0 149:1.0 150:1.0 151:1.0 154:1.0 155:1.0 157:1.0 163:1.0 164:1.0 171:1.0 172:1.0 173:1.0 175:1.0 180:1.0 181:1.0 183:1.0 184:1.0 185:1.0 189:1.0 192:1.0 193:1.0 194:1.0 195:1.0 196:1.0 198:1.0 199:1.0 200:1.0 201:1.0 203:1.0 204:1.0 205:1.0 207:1.0 210:1.0 211:1.0 212:1.0 213:1.0 214:1.0 217:1.0 218:1.0 219:1.0 220:1.0 223:1.0 226:1.0 227:1.0 228:1.0 230:1.0 231:1.0 232:1.0 233:1.0 235:1.0 236:1.0 240:1.0 241:1.0 242:1.0 
1.0 0.0 0.01070993772388489 0.0 0.7908475954654008 0.0 1.0 1.0 1.0 0.6017167256252751 0.0 0.0 1.0 1.0 0.0 0.5287488320752305 0.5842768651094946 0.7206617534415556 0.36478883534378265 0.0 0.0 0.0 3:1.0 4:1.0 6:1.0 7:1.0 8:1.0 9:1.0 14:1.0 15:1.0 20:1.0 21:1.0 23:1.0 24:1.0 25:1.0 27:1.0 28:1.0 30:1.0 31:1.0 32:1.0 33:1.0 35:1.0 37:1.0 38:1.0 43:1.0 44:1.0 46:1.0 49:1.0 56:1.0 59:1.0 60:1.0 62:1.0 64:1.0 66:1.0 67:1.0 70:1.0 73:1.0 76:1.0 77:1.0 81:1.0 82:1.0 83:1.0 84:1.0 91:1.0 98:1.0 100:1.0 102:1.0 103:1.0 104:1.0 105:1.0 106:1.0 108:1.0 109:1.0 112:1.0 113:1.0 114:1.0 115:1.0 116:1.0 117:1.0 119:1.0 120:1.0 122:1.0 126:1.0 127:1.0 128:1.0 136:1.0 139:1.0 140:1.0 142:1.0 145:1.0 146:1.0 147:1.0 148:1.0 149:1.0 151:1.0 152:1.0 154:1.0 155:1.0 157:1.0 158:1.0 169:1.0 173:1.0 175:1.0 176:1.0 177:1.0 181:1.0 183:1.0 184:1.0 185:1.0 192:1.0 195:1.0 201:1.0 203:1.0 204:1.0 205:1.0 207:1.0 208:1.0 210:1.0 211:1.0 212:1.0 213:1.0 214:1.0 217:1.0 218:1.0 219:1.0 220:1.0 228:1.0 230:1.0 231:1.0 232:1.0 233:1.0 234:1.0 235:1.0 236:1.0 238:1.0 
1.0 0.0 0.0 0.0 0.9913778748280346 0.0 1.0 1.0 0.0 0.0 0.0 0.0 1.0 1.0 1.0 0.0 1.0 0.0 0.0 0.2756516200017149 0.0 0.0 0:1.0 2:1.0 3:1.0 4:1.0 6:1.0 7:1.0 8:1.0 9:1.0 15:1.0 23:1.0 25:1.0 30:1.0 32:1.0 33:1.0 34:1.0 35:1.0 37:1.0 38:1.0 43:1.0 45:1.0 49:1.0 51:1.0 52:1.0 61:1.0 63:1.0 64:1.0 66:1.0 67:1.0 68:1.0 73:1.0 75:1.0 76:1.0 81:1.0 86:1.0 88:1.0 90:1.0 91:1.0 92:1.0 97:1.0 100:1.0 102:1.0 103:1.0 105:1.0 108:1.0 109:1.0 112:1.0 113:1.0 114:1.0 117:1.0 118:1.0 120:1.0 121:1.0 122:1.0 123:1.0 126:1.0 127:1.0 128:1.0 133:1.0 139:1.0 140:1.0 142:1.0 145:1.0 146:1.0 147:1.0 148:1.0 149:1.0 151:1.0 154:1.0 155:1.0 156:1.0 164:1.0 166:1.0 173:1.0 175:1.0 183:1.0 185:1.0 192:1.0 198:1.0 201:1.0 204:1.0 205:1.0 211:1.0 213:1.0 218:1.0 219:1.0 228:1.0 231:1.0 232:1.0 233:1.0 234:1.0 235:1.0 236:1.0 241:1.0 243:1.0 
0.0 0.0 0.0 0.0 0.0 0.0 0.0 0.0 0.0 0.0 0.0 0.0 1.0 1.0 0.0 0.0 0.0 0.0 0.0 0.0 0.0 0.0 3:1.0 4:1.0 6:1.0 7:1.0 8:1.0 9:1.0 15:1.0 23:1.0 24:1.0 25:1.0 28:1.0 30:1.0 33:1.0 34:1.0 35:1.0 38:1.0 43:1.0 46:1.0 49:1.0 59:1.0 64:1.0 67:1.0 73:1.0 76:1.0 81:1.0 82:1.0 83:1.0 91:1.0 100:1.0 103:1.0 107:1.0 108:1.0 109:1.0 110:1.0 112:1.0 115:1.0 120:1.0 126:1.0 127:1.0 128:1.0 136:1.0 139:1.0 145:1.0 146:1.0 147:1.0 148:1.0 149:1.0 155:1.0 156:1.0 164:1.0 173:1.0 175:1.0 177:1.0 183:1.0 184:1.0 185:1.0 200:1.0 201:1.0 204:1.0 205:1.0 210:1.0 211:1.0 212:1.0 217:1.0 218:1.0 219:1.0 220:1.0 228:1.0 231:1.0 232:1.0 233:1.0 235:1.0 237:1.0 238:1.0 
0.0 0.0948946990255501 0.0 0.7866767061499869 0.5169977299979353 1.0 0.6608216788584104 0.0 0.0 0.5124189542311691 0.2719213635886953 0.0 0.49859525317260495 0.0 0.0 0.0 0.44602418889014006 0.0 0.0 0.0 0.0 0.3272424253602735 3:1.0 4:1.0 6:1.0 7:1.0 8:1.0 9:1.0 15:1.0 23:1.0 25:1.0 32:1.0 39:1.0 48:1.0 52:1.0 53:1.0 56:1.0 57:1.0 58:1.0 64:1.0 70:1.0 73:1.0 76:1.0 77:1.0 81:1.0 82:1.0 83:1.0 84:1.0 88:1.0 89:1.0 90:1.0 92:1.0 100:1.0 105:1.0 108:1.0 120:1.0 127:1.0 131:1.0 133:1.0 145:1.0 146:1.0 147:1.0 149:1.0 155:1.0 156:1.0 164:1.0 173:1.0 177:1.0 183:1.0 184:1.0 185:1.0 186:1.0 187:1.0 192:1.0 193:1.0 198:1.0 200:1.0 213:1.0 214:1.0 217:1.0 219:1.0 220:1.0 228:1.0 231:1.0 232:1.0 233:1.0 235:1.0 238:1.0 241:1.0 
1.0 0.0 0.0 0.0 1.0 0.0 0.5592014675151278 0.3978326312591302 0.0 0.6223284109843431 0.0 0.004984517105939979 0.8814772797111541 0.0 0.5600407879663366 0.2263840693735204 0.0 0.0 0.0 0.0 0.0 0.22627181888348938 0:1.0 3:1.0 4:1.0 6:1.0 7:1.0 8:1.0 9:1.0 11:1.0 15:1.0 23:1.0 28:1.0 32:1.0 43:1.0 44:1.0 49:1.0 56:1.0 67:1.0 70:1.0 73:1.0 76:1.0 81:1.0 82:1.0 83:1.0 86:1.0 90:1.0 91:1.0 92:1.0 100:1.0 103:1.0 105:1.0 108:1.0 112:1.0 116:1.0 117:1.0 119:1.0 120:1.0 126:1.0 127:1.0 128:1.0 131:1.0 132:1.0 136:1.0 139:1.0 140:1.0 146:1.0 147:1.0 148:1.0 149:1.0 150:1.0 151:1.0 156:1.0 162:1.0 163:1.0 171:1.0 173:1.0 175:1.0 177:1.0 183:1.0 184:1.0 185:1.0 192:1.0 199:1.0 201:1.0 204:1.0 207:1.0 210:1.0 218:1.0 219:1.0 228:1.0 231:1.0 232:1.0 233:1.0 237:1.0 238:1.0 241:1.0 
0.0 0.3084232529181317 0.0 0.0 0.053319904037056345 0.0 0.6208985409799292 1.0 0.0 0.0 0.0 0.0 0.7919744213878201 0.0 0.6153334582119373 0.0 0.0 0.0 0.0 0.0 0.0 0.0 3:1.0 4:1.0 6:1.0 8:1.0 9:1.0 15:1.0 21:1.0 23:1.0 25:1.0 32:1.0 36:1.0 43:1.0 49:1.0 56:1.0 64:1.0 70:1.0 73:1.0 76:1.0 81:1.0 82:1.0 83:1.0 91:1.0 92:1.0 97:1.0 100:1.0 101:1.0 108:1.0 109:1.0 120:1.0 128:1.0 131:1.0 133:1.0 134:1.0 139:1.0 140:1.0 145:1.0 146:1.0 147:1.0 148:1.0 151:1.0 156:1.0 173:1.0 175:1.0 183:1.0 185:1.0 203:1.0 217:1.0 219:1.0 220:1.0 228:1.0 231:1.0 233:1.0 237:1.0 243:1.0 
0.45683890268967475 0.04069596599905101 0.0 0.6384362228579796 1.0 0.0 0.0 0.0 0.0 1.0 0.0 0.0 0.0 0.0 0.0 0.3966238346575382 1.0 0.08351527598564404 0.0 0.0 0.0 0.0 2:1.0 3:1.0 4:1.0 11:1.0 15:1.0 19:1.0 23:1.0 25:1.0 28:1.0 29:1.0 30:1.0 32:1.0 39:1.0 43:1.0 49:1.0 51:1.0 56:1.0 64:1.0 70:1.0 73:1.0 81:1.0 82:1.0 83:1.0 91:1.0 92:1.0 99:1.0 103:1.0 112:1.0 114:1.0 116:1.0 117:1.0 119:1.0 120:1.0 126:1.0 128:1.0 130:1.0 132:1.0 133:1.0 139:1.0 140:1.0 146:1.0 147:1.0 148:1.0 155:1.0 156:1.0 175:1.0 178:1.0 180:1.0 183:1.0 185:1.0 192:1.0 193:1.0 202:1.0 213:1.0 219:1.0 220:1.0 228:1.0 231:1.0 234:1.0 235:1.0 237:1.0 238:1.0 243:1.0 
0.0 0.764979949602416 0.0 0.004041096162872794 0.07453025662971421 0.0 0.09885371939370931 0.09206805500296447 1.0 0.0 0.0 0.36718663997968803 0.0 0.0 0.17405025593642193 0.0 0.0 0.0 0.0 0.0 0.0 0.5787933642439862 3:1.0 4:1.0 9:1.0 15:1.0 23:1.0 25:1.0 29:1.0 30:1.0 32:1.0 36:1.0 39:1.0 40:1.0 43:1.0 49:1.0 51:1.0 56:1.0 64:1.0 70:1.0 73:1.0 81:1.0 82:1.0 83:1.0 88:1.0 91:1.0 92:1.0 100:1.0 103:1.0 109:1.0 120:1.0 123:1.0 126:1.0 132:1.0 146:1.0 147:1.0 151:1.0 155:1.0 156:1.0 162:1.0 163:1.0 173:1.0 175:1.0 177:1.0 183:1.0 185:1.0 192:1.0 193:1.0 201:1.0 204:1.0 205:1.0 207:1.0 212:1.0 214:1.0 217:1.0 218:1.0 219:1.0 220:1.0 227:1.0 228:1.0 231:1.0 233:1.0 234:1.0 235:1.0 237:1.0 238:1.0 243:1.0 
1.0 1.0 0.0 0.0 1.0 0.0 1.0 1.0 0.0 0.0 0.0 0.35280375440818657 1.0 0.0 1.0 0.0 1.0 0.0 0.0 0.0 0.0 0.7719767987928174 3:1.0 4:1.0 6:1.0 8:1.0 9:1.0 15:1.0 16:1.0 17:1.0 18:1.0 20:1.0 23:1.0 27:1.0 32:1.0 33:1.0 43:1.0 46:1.0 49:1.0 56:1.0 64:1.0 73:1.0 76:1.0 77:1.0 80:1.0 81:1.0 82:1.0 83:1.0 87:1.0 88:1.0 91:1.0 92:1.0 96:1.0 100:1.0 102:1.0 103:1.0 112:1.0 114:1.0 116:1.0 117:1.0 119:1.0 120:1.0 123:1.0 126:1.0 128:1.0 131:1.0 133:1.0 139:1.0 146:1.0 147:1.0 148:1.0 149:1.0 155:1.0 156:1.0 157:1.0 166:1.0 173:1.0 175:1.0 176:1.0 177:1.0 183:1.0 185:1.0 192:1.0 193:1.0 202:1.0 204:1.0 207:1.0 214:1.0 219:1.0 220:1.0 227:1.0 231:1.0 232:1.0 233:1.0 237:1.0 238:1.0 
1.0 0.0 0.0 0.0 1.0 0.0 1.0 0.33097149100472006 1.0 0.26086109371667415 0.0 0.12758606737459507 1.0 1.0 0.4555021744856568 0.0 0.0 0.0 0.0 0.0 0.0 0.5190264155395852 3:1.0 4:1.0 6:1.0 7:1.0 8:1.0 9:1.0 15:1.0 20:1.0 23:1.0 25:1.0 26:1.0 27:1.0 28:1.0 32:1.0 33:1.0 35:1.0 38:1.0 40:1.0 43:1.0 44:1.0 49:1.0 50:1.0 51:1.0 55:1.0 56:1.0 64:1.0 70:1.0 73:1.0 77:1.0 81:1.0 82:1.0 83:1.0 88:1.0 89:1.0 91:1.0 92:1.0 97:1.0 100:1.0 103:1.0 106:1.0 108:1.0 109:1.0 112:1.0 113:1.0 114:1.0 115:1.0 116:1.0 117:1.0 119:1.0 120:1.0 126:1.0 127:1.0 128:1.0 132:1.0 139:1.0 140:1.0 141:1.0 143:1.0 145:1.0 146:1.0 147:1.0 149:1.0 155:1.0 156:1.0 162:1.0 163:1.0 164:1.0 173:1.0 175:1.0 177:1.0 183:1.0 185:1.0 196:1.0 201:1.0 204:1.0 205:1.0 207:1.0 210:1.0 211:1.0 212:1.0 213:1.0 214:1.0 218:1.0 219:1.0 220:1.0 227:1.0 228:1.0 231:1.0 232:1.0 233:1.0 237:1.0 238:1.0 
1.0 0.015356275303964051 0.0 0.0 1.0 0.7385387222392336 1.0 1.0 0.0 0.0 0.0 1.0 1.0 1.0 1.0 0.0 1.0 0.0 1.0 1.0 0.3395121968666023 0.5648256587856278 0:1.0 2:1.0 3:1.0 6:1.0 7:1.0 8:1.0 9:1.0 15:1.0 21:1.0 23:1.0 25:1.0 26:1.0 30:1.0 32:1.0 34:1.0 37:1.0 38:1.0 43:1.0 49:1.0 52:1.0 64:1.0 66:1.0 70:1.0 73:1.0 76:1.0 77:1.0 81:1.0 88:1.0 89:1.0 91:1.0 92:1.0 97:1.0 98:1.0 100:1.0 102:1.0 103:1.0 105:1.0 108:1.0 109:1.0 112:1.0 113:1.0 114:1.0 117:1.0 118:1.0 120:1.0 122:1.0 126:1.0 127:1.0 128:1.0 131:1.0 136:1.0 139:1.0 140:1.0 142:1.0 145:1.0 146:1.0 147:1.0 151:1.0 156:1.0 164:1.0 173:1.0 175:1.0 183:1.0 185:1.0 199:1.0 201:1.0 204:1.0 206:1.0 207:1.0 210:1.0 211:1.0 213:1.0 216:1.0 218:1.0 219:1.0 220:1.0 224:1.0 228:1.0 231:1.0 232:1.0 233:1.0 241:1.0 
0.0 0.0 0.0 0.0 0.0 0.0 0.0 0.0 0.0 0.8856669285373471 0.0 0.0 1.0 1.0 0.17628251280747098 0.02408532927674199 0.0 0.0 0.0 0.0 0.0 0.0 3:1.0 4:1.0 6:1.0 7:1.0 8:1.0 9:1.0 11:1.0 14:1.0 15:1.0 19:1.0 23:1.0 25:1.0 28:1.0 29:1.0 30:1.0 32:1.0 33:1.0 37:1.0 43:1.0 49:1.0 51:1.0 52:1.0 56:1.0 64:1.0 65:1.0 67:1.0 68:1.0 70:1.0 73:1.0 76:1.0 81:1.0 82:1.0 83:1.0 91:1.0 92:1.0 97:1.0 100:1.0 103:1.0 105:1.0 108:1.0 109:1.0 112:1.0 114:1.0 119:1.0 120:1.0 126:1.0 127:1.0 128:1.0 131:1.0 132:1.0 136:1.0 139:1.0 142:1.0 143:1.0 145:1.0 146:1.0 147:1.0 148:1.0 149:1.0 150:1.0 151:1.0 154:1.0 155:1.0 156:1.0 162:1.0 164:1.0 170:1.0 171:1.0 173:1.0 175:1.0 177:1.0 183:1.0 184:1.0 185:1.0 192:1.0 199:1.0 201:1.0 204:1.0 205:1.0 207:1.0 209:1.0 212:1.0 214:1.0 218:1.0 219:1.0 220:1.0 227:1.0 228:1.0 231:1.0 232:1.0 233:1.0 235:1.0 237:1.0 238:1.0 241:1.0 243:1.0 
1.0 0.0 1.0 0.4890169447651572 0.0 0.0 0.5648484976390383 1.0 0.5323021823929589 1.0 0.1596748314472642 0.0 0.5849036710656811 1.0 0.0 0.32903533531282997 0.829901281267337 0.35535687635388197 0.3696119547396603 0.0 0.0 0.3790801015832357 3:1.0 4:1.0 6:1.0 7:1.0 9:1.0 10:1.0 15:1.0 21:1.0 23:1.0 25:1.0 27:1.0 29:1.0 30:1.0 32:1.0 33:1.0 35:1.0 38:1.0 41:1.0 43:1.0 46:1.0 49:1.0 60:1.0 62:1.0 64:1.0 73:1.0 81:1.0 91:1.0 92:1.0 98:1.0 100:1.0 103:1.0 104:1.0 105:1.0 106:1.0 108:1.0 109:1.0 110:1.0 113:1.0 115:1.0 119:1.0 120:1.0 127:1.0 128:1.0 132:1.0 134:1.0 139:1.0 140:1.0 146:1.0 147:1.0 149:1.0 152:1.0 153:1.0 154:1.0 155:1.0 156:1.0 173:1.0 175:1.0 180:1.0 183:1.0 184:1.0 185:1.0 192:1.0 194:1.0 201:1.0 203:1.0 204:1.0 205:1.0 207:1.0 212:1.0 213:1.0 219:1.0 220:1.0 228:1.0 231:1.0 232:1.0 233:1.0 235:1.0 236:1.0 238:1.0 
1.0 1.0 0.13207778060418202 1.0 1.0 1.0 1.0 1.0 1.0 1.0 0.08825432805530725 1.0 1.0 1.0 1.0 1.0 1.0 0.6702387719411449 1.0 1.0 0.0 1.0 3:1.0 7:1.0 8:1.0 9:1.0 14:1.0 23:1.0 33:1.0 43:1.0 44:1.0 49:1.0 61:1.0 64:1.0 66:1.0 70:1.0 73:1.0 75:1.0 76:1.0 77:1.0 81:1.0 92:1.0 98:1.0 100:1.0 108:1.0 109:1.0 112:1.0 113:1.0 120:1.0 126:1.0 128:1.0 131:1.0 133:1.0 134:1.0 136:1.0 146:1.0 147:1.0 148:1.0 155:1.0 156:1.0 175:1.0 177:1.0 185:1.0 201:1.0 207:1.0 209:1.0 214:1.0 218:1.0 219:1.0 228:1.0 231:1.0 234:1.0 
0.3966893589324453 0.6651969306175367 0.0 0.1259998002841399 0.3662897877320371 0.0 0.9948922504007183 1.0 1.0 0.0 0.0 1.0 0.0 0.0 0.0 0.6197508092339448 0.41785479487242816 0.0 0.0 0.0 0.0 0.7515930835424136 0:1.0 3:1.0 4:1.0 7:1.0 8:1.0 9:1.0 11:1.0 14:1.0 15:1.0 23:1.0 30:1.0 32:1.0 33:1.0 41:1.0 43:1.0 49:1.0 53:1.0 56:1.0 64:1.0 65:1.0 73:1.0 76:1.0 81:1.0 90:1.0 91:1.0 92:1.0 100:1.0 103:1.0 112:1.0 120:1.0 126:1.0 128:1.0 131:1.0 133:1.0 139:1.0 140:1.0 142:1.0 145:1.0 146:1.0 148:1.0 154:1.0 156:1.0 162:1.0 163:1.0 164:1.0 165:1.0 171:1.0 173:1.0 175:1.0 176:1.0 183:1.0 184:1.0 185:1.0 192:1.0 193:1.0 194:1.0 201:1.0 204:1.0 205:1.0 208:1.0 209:1.0 210:1.0 211:1.0 214:1.0 219:1.0 220:1.0 228:1.0 231:1.0 233:1.0 237:1.0 238:1.0 241:1.0 
0.7531638813414969 0.0 0.0 0.0 0.0 0.0 0.1508426644070113 0.0 0.0 0.0 0.0 0.0 1.0 1.0 0.592141611836247 0.0 0.0 0.0 0.0 0.0 0.0 0.0 2:1.0 3:1.0 4:1.0 6:1.0 8:1.0 9:1.0 15:1.0 19:1.0 23:1.0 27:1.0 30:1.0 32:1.0 33:1.0 39:1.0 43:1.0 49:1.0 51:1.0 52:1.0 63:1.0 73:1.0 76:1.0 81:1.0 82:1.0 88:1.0 90:1.0 91:1.0 92:1.0 100:1.0 102:1.0 103:1.0 105:1.0 108:1.0 115:1.0 120:1.0 126:1.0 128:1.0 131:1.0 136:1.0 142:1.0 144:1.0 145:1.0 154:1.0 155:1.0 156:1.0 164:1.0 173:1.0 175:1.0 183:1.0 184:1.0 185:1.0 198:1.0 201:1.0 205:1.0 209:1.0 210:1.0 214:1.0 218:1.0 219:1.0 220:1.0 228:1.0 229:1.0 231:1.0 232:1.0 233:1.0 234:1.0 235:1.0 236:1.0 237:1.0 238:1.0 241:1.0 243:1.0 
1.0 0.0 0.0 0.0 1.0 0.0 1.0 0.0 0.0 0.0 0.0 0.0 1.0 1.0 1.0 0.0 1.0 0.10833575932178384 0.0 0.0 0.0 0.0 3:1.0 4:1.0 6:1.0 8:1.0 9:1.0 14:1.0 15:1.0 20:1.0 23:1.0 25:1.0 26:1.0 30:1.0 31:1.0 32:1.0 33:1.0 34:1.0 35:1.0 43:1.0 49:1.0 50:1.0 56:1.0 57:1.0 64:1.0 65:1.0 67:1.0 70:1.0 73:1.0 76:1.0 81:1.0 82:1.0 83:1.0 91:1.0 92:1.0 97:1.0 100:1.0 103:1.0 104:1.0 105:1.0 106:1.0 108:1.0 109:1.0 112:1.0 114:1.0 116:1.0 120:1.0 121:1.0 122:1.0 126:1.0 127:1.0 128:1.0 131:1.0 136:1.0 145:1.0 146:1.0 147:1.0 149:1.0 154:1.0 155:1.0 156:1.0 164:1.0 167:1.0 173:1.0 175:1.0 181:1.0 183:1.0 185:1.0 204:1.0 205:1.0 211:1.0 212:1.0 214:1.0 220:1.0 228:1.0 231:1.0 232:1.0 233:1.0 234:1.0 235:1.0 237:1.0 238:1.0 241:1.0 
1.0 0.1333446129067049 0.0 0.9002065617212528 0.9955785189170683 0.2800657843647113 0.8847385790270604 0.5576333978926201 0.6656948942733297 0.0 0.0 0.7477504556006214 0.25981405713464417 0.0 0.7492737869302525 0.0 0.5929726030234178 0.09616410151049135 0.019415635655089716 0.0 0.0 0.0 3:1.0 4:1.0 6:1.0 7:1.0 8:1.0 15:1.0 26:1.0 27:1.0 28:1.0 30:1.0 32:1.0 38:1.0 43:1.0 49:1.0 50:1.0 60:1.0 64:1.0 70:1.0 73:1.0 76:1.0 81:1.0 91:1.0 92:1.0 97:1.0 100:1.0 101:1.0 103:1.0 113:1.0 115:1.0 119:1.0 120:1.0 121:1.0 128:1.0 131:1.0 139:1.0 140:1.0 143:1.0 146:1.0 147:1.0 148:1.0 149:1.0 150:1.0 151:1.0 156:1.0 162:1.0 163:1.0 171:1.0 173:1.0 175:1.0 183:1.0 184:1.0 185:1.0 192:1.0 199:1.0 204:1.0 205:1.0 210:1.0 219:1.0 227:1.0 228:1.0 229:1.0 231:1.0 233:1.0 237:1.0 238:1.0 
1.0 0.376305739914425 1.0 1.0 1.0 1.0 1.0 1.0 1.0 1.0 1.0 1.0 0.9647867622063062 1.0 0.6263184547144716 1.0 1.0 1.0 1.0 0.1476306645266579 1.0 1.0 0:1.0 2:1.0 4:1.0 6:1.0 8:1.0 9:1.0 14:1.0 15:1.0 19:1.0 22:1.0 23:1.0 25:1.0 29:1.0 31:1.0 32:1.0 33:1.0 36:1.0 37:1.0 43:1.0 44:1.0 48:1.0 49:1.0 51:1.0 52:1.0 56:1.0 60:1.0 64:1.0 68:1.0 70:1.0 71:1.0 73:1.0 76:1.0 81:1.0 82:1.0 83:1.0 90:1.0 91:1.0 95:1.0 100:1.0 106:1.0 111:1.0 112:1.0 113:1.0 114:1.0 116:1.0 117:1.0 119:1.0 120:1.0 125:1.0 126:1.0 128:1.0 132:1.0 136:1.0 139:1.0 142:1.0 145:1.0 146:1.0 147:1.0 149:1.0 150:1.0 151:1.0 156:1.0 160:1.0 163:1.0 164:1.0 172:1.0 174:1.0 175:1.0 180:1.0 183:1.0 184:1.0 185:1.0 192:1.0 194:1.0 195:1.0 196:1.0 199:1.0 200:1.0 201:1.0 204:1.0 205:1.0 207:1.0 208:1.0 210:1.0 211:1.0 212:1.0 213:1.0 214:1.0 216:1.0 217:1.0 218:1.0 219:1.0 220:1.0 223:1.0 227:1.0 228:1.0 230:1.0 231:1.0 232:1.0 233:1.0 234:1.0 235:1.0 237:1.0 239:1.0 240:1.0 241:1.0 242:1.0 243:1.0 
0.0 0.0 0.21472754089247129 0.7882411893065084 0.0 0.0 0.3014855496345784 0.27544102046508473 0.2536172993736783 1.0 0.0 0.0 0.0 0.0 0.0 0.8776914819994259 0.0 0.034100795926317554 0.0 0.0 0.0 0.0 0:1.0 3:1.0 4:1.0 6:1.0 7:1.0 8:1.0 9:1.0 11:1.0 15:1.0 19:1.0 23:1.0 32:1.0 33:1.0 39:1.0 43:1.0 44:1.0 45:1.0 49:1.0 52:1.0 56:1.0 57:1.0 64:1.0 65:1.0 70:1.0 73:1.0 76:1.0 81:1.0 82:1.0 83:1.0 88:1.0 90:1.0 91:1.0 92:1.0 101:1.0 103:1.0 105:1.0 109:1.0 112:1.0 115:1.0 120:1.0 125:1.0 126:1.0 127:1.0 128:1.0 131:1.0 132:1.0 136:1.0 139:1.0 140:1.0 146:1.0 147:1.0 148:1.0 149:1.0 150:1.0 156:1.0 162:1.0 163:1.0 173:1.0 175:1.0 177:1.0 183:1.0 184:1.0 185:1.0 192:1.0 199:1.0 201:1.0 204:1.0 210:1.0 211:1.0 218:1.0 219:1.0 220:1.0 227:1.0 228:1.0 231:1.0 232:1.0 233:1.0 237:1.0 238:1.0 241:1.0 243:1.0 
1.0 0.1838077308259306 0.9586437974504753 1.0 1.0 0.0 1.0 0.4445837922633668 0.8855295925549626 1.0 0.0 0.19694275992767102 1.0 0.0 0.9212141633286347 0.8553281717562434 1.0 0.0 0.43538849185282963 0.0 0.0 0.2162254440919572 0:1.0 2:1.0 3:1.0 4:1.0 6:1.0 9:1.0 11:1.0 14:1.0 15:1.0 16:1.0 18:1.0 22:1.0 23:1.0 25:1.0 26:1.0 30:1.0 31:1.0 32:1.0 33:1.0 37:1.0 49:1.0 50:1.0 56:1.0 60:1.0 64:1.0 65:1.0 69:1.0 70:1.0 71:1.0 73:1.0 76:1.0 81:1.0 91:1.0 92:1.0 94:1.0 98:1.0 100:1.0 106:1.0 108:1.0 109:1.0 112:1.0 114:1.0 115:1.0 119:1.0 120:1.0 121:1.0 125:1.0 126:1.0 128:1.0 131:1.0 133:1.0 136:1.0 139:1.0 145:1.0 146:1.0 147:1.0 148:1.0 149:1.0 151:1.0 155:1.0 156:1.0 163:1.0 164:1.0 173:1.0 175:1.0 177:1.0 183:1.0 184:1.0 185:1.0 194:1.0 201:1.0 204:1.0 205:1.0 210:1.0 212:1.0 214:1.0 215:1.0 218:1.0 219:1.0 220:1.0 228:1.0 231:1.0 232:1.0 233:1.0 234:1.0 235:1.0 
1.0 1.0 1.0 1.0 1.0 1.0 1.0 1.0 1.0 1.0 1.0 1.0 1.0 1.0 1.0 1.0 1.0 1.0 1.0 1.0 1.0 1.0 0:1.0 4:1.0 5:1.0 6:1.0 8:1.0 9:1.0 10:1.0 11:1.0 14:1.0 15:1.0 19:1.0 22:1.0 23:1.0 25:1.0 29:1.0 36:1.0 39:1.0 43:1.0 44:1.0 45:1.0 46:1.0 48:1.0 49:1.0 50:1.0 52:1.0 53:1.0 54:1.0 56:1.0 60:1.0 62:1.0 63:1.0 64:1.0 67:1.0 68:1.0 69:1.0 73:1.0 74:1.0 75:1.0 76:1.0 77:1.0 81:1.0 84:1.0 88:1.0 89:1.0 90:1.0 93:1.0 94:1.0 97:1.0 100:1.0 101:1.0 104:1.0 105:1.0 106:1.0 108:1.0 109:1.0 111:1.0 112:1.0 113:1.0 116:1.0 120:1.0 121:1.0 125:1.0 126:1.0 127:1.0 128:1.0 132:1.0 133:1.0 134:1.0 136:1.0 139:1.0 140:1.0 142:1.0 149:1.0 151:1.0 152:1.0 164:1.0 165:1.0 167:1.0 168:1.0 173:1.0 175:1.0 183:1.0 184:1.0 185:1.0 192:1.0 193:1.0 197:1.0 198:1.0 201:1.0 203:1.0 205:1.0 207:1.0 208:1.0 210:1.0 211:1.0 213:1.0 214:1.0 217:1.0 218:1.0 220:1.0 221:1.0 222:1.0 223:1.0 225:1.0 228:1.0 229:1.0 231:1.0 232:1.0 233:1.0 236:1.0 239:1.0 
1.0 0.28839265854787577 0.0 0.15173470030497574 1.0 0.0 1.0 1.0 0.0 0.0 0.0 1.0 1.0 1.0 1.0 0.0 0.7914746541313935 0.0 0.0 1.0 0.0 0.6875264362569694 3:1.0 4:1.0 6:1.0 8:1.0 9:1.0 14:1.0 15:1.0 19:1.0 27:1.0 32:1.0 33:1.0 34:1.0 38:1.0 43:1.0 44:1.0 49:1.0 56:1.0 64:1.0 68:1.0 70:1.0 73:1.0 81:1.0 82:1.0 83:1.0 87:1.0 88:1.0 90:1.0 91:1.0 96:1.0 97:1.0 100:1.0 102:1.0 105:1.0 108:1.0 109:1.0 118:1.0 119:1.0 120:1.0 126:1.0 133:1.0 136:1.0 139:1.0 140:1.0 146:1.0 147:1.0 151:1.0 156:1.0 164:1.0 166:1.0 173:1.0 175:1.0 183:1.0 184:1.0 204:1.0 213:1.0 218:1.0 219:1.0 220:1.0 231:1.0 232:1.0 236:1.0 241:1.0 
0.0 0.0 1.0 1.0 1.0 1.0 0.0 0.0 0.8665912390663003 1.0 1.0 0.04488716866795352 0.09226811027884702 1.0 0.0 1.0 1.0 1.0 1.0 0.1877299458216279 1.0 1.0 0:1.0 2:1.0 3:1.0 4:1.0 6:1.0 7:1.0 8:1.0 9:1.0 11:1.0 12:1.0 13:1.0 14:1.0 19:1.0 21:1.0 23:1.0 25:1.0 29:1.0 30:1.0 31:1.0 32:1.0 33:1.0 34:1.0 43:1.0 44:1.0 46:1.0 47:1.0 48:1.0 49:1.0 50:1.0 52:1.0 58:1.0 60:1.0 61:1.0 62:1.0 63:1.0 64:1.0 67:1.0 73:1.0 75:1.0 76:1.0 77:1.0 81:1.0 82:1.0 84:1.0 88:1.0 89:1.0 91:1.0 92:1.0 94:1.0 97:1.0 98:1.0 99:1.0 100:1.0 102:1.0 105:1.0 106:1.0 107:1.0 108:1.0 109:1.0 110:1.0 114:1.0 115:1.0 116:1.0 117:1.0 120:1.0 123:1.0 125:1.0 126:1.0 128:1.0 135:1.0 139:1.0 140:1.0 144:1.0 145:1.0 146:1.0 147:1.0 148:1.0 149:1.0 154:1.0 155:1.0 156:1.0 159:1.0 160:1.0 161:1.0 164:1.0 173:1.0 175:1.0 181:1.0 183:1.0 184:1.0 185:1.0 186:1.0 187:1.0 192:1.0 196:1.0 198:1.0 201:1.0 203:1.0 204:1.0 205:1.0 208:1.0 209:1.0 210:1.0 213:1.0 217:1.0 220:1.0 225:1.0 227:1.0 228:1.0 230:1.0 231:1.0 232:1.0 233:1.0 235:1.0 236:1.0 241:1.0 242:1.0 243:1.0 
1.0 0.0 0.0 0.0 0.0 0.0 1.0 1.0 0.0 0.0 0.0 0.4190252331691669 1.0 1.0 0.0025420730786179986 0.0 0.5796421408655696 0.0 0.5101591997085123 1.0 0.0 0.0 2:1.0 3:1.0 4:1.0 6:1.0 7:1.0 8:1.0 9:1.0 14:1.0 15:1.0 19:1.0 23:1.0 27:1.0 28:1.0 30:1.0 32:1.0 34:1.0 35:1.0 36:1.0 38:1.0 40:1.0 43:1.0 44:1.0 45:1.0 49:1.0 50:1.0 51:1.0 52:1.0 60:1.0 63:1.0 64:1.0 65:1.0 66:1.0 67:1.0 68:1.0 73:1.0 74:1.0 76:1.0 77:1.0 81:1.0 82:1.0 83:1.0 86:1.0 88:1.0 89:1.0 90:1.0 91:1.0 92:1.0 100:1.0 102:1.0 103:1.0 105:1.0 108:1.0 109:1.0 112:1.0 113:1.0 114:1.0 116:1.0 118:1.0 120:1.0 121:1.0 122:1.0 126:1.0 127:1.0 128:1.0 132:1.0 133:1.0 136:1.0 139:1.0 140:1.0 145:1.0 146:1.0 147:1.0 148:1.0 149:1.0 151:1.0 154:1.0 155:1.0 164:1.0 166:1.0 171:1.0 173:1.0 175:1.0 177:1.0 178:1.0 183:1.0 184:1.0 185:1.0 192:1.0 194:1.0 198:1.0 200:1.0 203:1.0 204:1.0 206:1.0 210:1.0 211:1.0 212:1.0 213:1.0 217:1.0 218:1.0 220:1.0 224:1.0 228:1.0 229:1.0 231:1.0 232:1.0 233:1.0 235:1.0 236:1.0 243:1.0 
0.32836131083537906 0.0 0.0 0.0 0.0 0.0 1.0 0.0 0.0 0.0 0.0 0.0 1.0 1.0 0.0 0.0 0.0 0.0 0.0 0.0 0.0 0.0 3:1.0 4:1.0 6:1.0 7:1.0 8:1.0 9:1.0 14:1.0 15:1.0 23:1.0 24:1.0 25:1.0 30:1.0 32:1.0 33:1.0 35:1.0 38:1.0 43:1.0 46:1.0 49:1.0 56:1.0 60:1.0 63:1.0 64:1.0 70:1.0 73:1.0 76:1.0 77:1.0 81:1.0 88:1.0 89:1.0 92:1.0 100:1.0 103:1.0 104:1.0 105:1.0 108:1.0 109:1.0 112:1.0 120:1.0 122:1.0 126:1.0 127:1.0 128:1.0 136:1.0 137:1.0 139:1.0 140:1.0 142:1.0 146:1.0 147:1.0 148:1.0 149:1.0 151:1.0 155:1.0 156:1.0 170:1.0 171:1.0 173:1.0 175:1.0 183:1.0 184:1.0 185:1.0 192:1.0 193:1.0 194:1.0 198:1.0 200:1.0 201:1.0 203:1.0 204:1.0 205:1.0 206:1.0 207:1.0 217:1.0 218:1.0 219:1.0 220:1.0 227:1.0 228:1.0 231:1.0 232:1.0 233:1.0 235:1.0 236:1.0 241:1.0 
1.0 0.0 0.0 0.0 1.0 0.0 1.0 1.0 0.0 0.0 0.0 0.5016607344814632 1.0 1.0 0.6002079777195606 0.0030848354893182627 0.0 0.0 0.0 0.0 0.0 0.13815828548369744 3:1.0 4:1.0 6:1.0 7:1.0 8:1.0 9:1.0 14:1.0 15:1.0 18:1.0 23:1.0 25:1.0 26:1.0 30:1.0 32:1.0 35:1.0 37:1.0 38:1.0 43:1.0 44:1.0 49:1.0 50:1.0 51:1.0 52:1.0 56:1.0 57:1.0 60:1.0 64:1.0 65:1.0 66:1.0 67:1.0 70:1.0 73:1.0 76:1.0 77:1.0 79:1.0 81:1.0 82:1.0 88:1.0 90:1.0 91:1.0 97:1.0 100:1.0 102:1.0 105:1.0 108:1.0 109:1.0 113:1.0 114:1.0 116:1.0 117:1.0 119:1.0 120:1.0 121:1.0 122:1.0 126:1.0 127:1.0 128:1.0 132:1.0 136:1.0 139:1.0 140:1.0 145:1.0 146:1.0 147:1.0 148:1.0 149:1.0 156:1.0 164:1.0 170:1.0 173:1.0 175:1.0 177:1.0 183:1.0 184:1.0 185:1.0 192:1.0 196:1.0 201:1.0 203:1.0 204:1.0 205:1.0 207:1.0 210:1.0 212:1.0 213:1.0 214:1.0 217:1.0 218:1.0 219:1.0 220:1.0 227:1.0 228:1.0 230:1.0 231:1.0 232:1.0 233:1.0 235:1.0 236:1.0 241:1.0 
1.0 1.0 1.0 1.0 1.0 1.0 1.0 1.0 1.0 1.0 1.0 1.0 0.546604486909612 1.0 1.0 1.0 1.0 1.0 1.0 1.0 1.0 1.0 6:1.0 14:1.0 24:1.0 60:1.0 83:1.0 120:1.0 128:1.0 150:1.0 184:1.0 213:1.0 218:1.0 220:1.0 228:1.0 243:1.0 
0.49833592738241206 0.2712250478694955 1.0 1.0 0.0 1.0 0.8975085967413158 1.0 1.0 1.0 0.02271715802418267 1.0 0.2396755902467139 0.16205933000111789 1.0 1.0 1.0 0.46642543553721977 1.0 0.5760781453946949 0.0 1.0 0:1.0 2:1.0 3:1.0 4:1.0 6:1.0 7:1.0 8:1.0 9:1.0 12:1.0 14:1.0 15:1.0 20:1.0 21:1.0 23:1.0 24:1.0 25:1.0 26:1.0 28:1.0 30:1.0 31:1.0 32:1.0 33:1.0 34:1.0 36:1.0 40:1.0 41:1.0 43:1.0 46:1.0 47:1.0 49:1.0 51:1.0 57:1.0 63:1.0 64:1.0 65:1.0 66:1.0 68:1.0 71:1.0 73:1.0 75:1.0 76:1.0 77:1.0 81:1.0 82:1.0 87:1.0 90:1.0 91:1.0 92:1.0 93:1.0 94:1.0 96:1.0 97:1.0 98:1.0 99:1.0 100:1.0 103:1.0 105:1.0 106:1.0 107:1.0 108:1.0 109:1.0 120:1.0 121:1.0 123:1.0 128:1.0 131:1.0 132:1.0 133:1.0 135:1.0 136:1.0 139:1.0 140:1.0 142:1.0 143:1.0 145:1.0 146:1.0 147:1.0 148:1.0 149:1.0 150:1.0 154:1.0 155:1.0 156:1.0 161:1.0 162:1.0 163:1.0 164:1.0 166:1.0 171:1.0 172:1.0 173:1.0 175:1.0 177:1.0 178:1.0 183:1.0 184:1.0 185:1.0 187:1.0 192:1.0 193:1.0 201:1.0 202:1.0 203:1.0 204:1.0 205:1.0 207:1.0 210:1.0 211:1.0 213:1.0 214:1.0 215:1.0 216:1.0 217:1.0 218:1.0 219:1.0 220:1.0 228:1.0 229:1.0 230:1.0 231:1.0 232:1.0 233:1.0 234:1.0 235:1.0 236:1.0 241:1.0 242:1.0 243:1.0 
0.0 0.0 0.0 0.0 0.0 0.0 0.0 0.0 0.0 0.0 0.0 0.0 0.15187304199514262 1.0 0.0 0.0 1.0 0.0 0.8039953244654959 0.0 0.0 0.0 3:1.0 4:1.0 6:1.0 7:1.0 8:1.0 9:1.0 11:1.0 14:1.0 15:1.0 19:1.0 21:1.0 23:1.0 24:1.0 25:1.0 26:1.0 28:1.0 29:1.0 30:1.0 31:1.0 32:1.0 34:1.0 36:1.0 38:1.0 39:1.0 43:1.0 44:1.0 46:1.0 49:1.0 50:1.0 51:1.0 55:1.0 56:1.0 57:1.0 58:1.0 64:1.0 65:1.0 66:1.0 67:1.0 68:1.0 69:1.0 70:1.0 73:1.0 76:1.0 77:1.0 81:1.0 82:1.0 83:1.0 84:1.0 87:1.0 88:1.0 89:1.0 90:1.0 91:1.0 92:1.0 93:1.0 94:1.0 95:1.0 97:1.0 98:1.0 99:1.0 100:1.0 101:1.0 102:1.0 103:1.0 105:1.0 106:1.0 107:1.0 108:1.0 109:1.0 112:1.0 116:1.0 117:1.0 119:1.0 120:1.0 121:1.0 123:1.0 126:1.0 127:1.0 128:1.0 133:1.0 134:1.0 135:1.0 136:1.0 139:1.0 140:1.0 142:1.0 145:1.0 146:1.0 147:1.0 148:1.0 149:1.0 150:1.0 151:1.0 154:1.0 155:1.0 156:1.0 161:1.0 164:1.0 171:1.0 172:1.0 173:1.0 175:1.0 177:1.0 178:1.0 183:1.0 184:1.0 185:1.0 186:1.0 190:1.0 192:1.0 193:1.0 199:1.0 201:1.0 203:1.0 204:1.0 205:1.0 207:1.0 208:1.0 209:1.0 210:1.0 212:1.0 213:1.0 214:1.0 215:1.0 218:1.0 219:1.0 220:1.0 221:1.0 225:1.0 227:1.0 228:1.0 231:1.0 232:1.0 233:1.0 234:1.0 235:1.0 236:1.0 237:1.0 238:1.0 241:1.0 242:1.0 243:1.0 
0.0 0.8611118643938951 1.0 1.0 0.8588587818961196 1.0 0.0 1.0 1.0 1.0 1.0 1.0 0.0 1.0 0.0 1.0 1.0 1.0 1.0 0.0 1.0 1.0 0:1.0 2:1.0 3:1.0 4:1.0 6:1.0 7:1.0 8:1.0 9:1.0 10:1.0 11:1.0 12:1.0 13:1.0 14:1.0 15:1.0 19:1.0 20:1.0 23:1.0 24:1.0 25:1.0 26:1.0 27:1.0 28:1.0 29:1.0 30:1.0 31:1.0 32:1.0 34:1.0 35:1.0 36:1.0 37:1.0 38:1.0 39:1.0 40:1.0 41:1.0 42:1.0 43:1.0 44:1.0 45:1.0 46:1.0 47:1.0 48:1.0 49:1.0 50:1.0 51:1.0 52:1.0 54:1.0 55:1.0 56:1.0 58:1.0 60:1.0 61:1.0 62:1.0 63:1.0 64:1.0 65:1.0 66:1.0 67:1.0 68:1.0 69:1.0 70:1.0 71:1.0 73:1.0 75:1.0 76:1.0 77:1.0 81:1.0 82:1.0 83:1.0 84:1.0 85:1.0 87:1.0 88:1.0 89:1.0 90:1.0 91:1.0 92:1.0 93:1.0 94:1.0 97:1.0 98:1.0 99:1.0 100:1.0 102:1.0 103:1.0 104:1.0 105:1.0 106:1.0 107:1.0 108:1.0 109:1.0 112:1.0 113:1.0 114:1.0 115:1.0 116:1.0 117:1.0 119:1.0 120:1.0 121:1.0 122:1.0 123:1.0 125:1.0 126:1.0 127:1.0 128:1.0 131:1.0 132:1.0 133:1.0 134:1.0 135:1.0 136:1.0 139:1.0 140:1.0 141:1.0 142:1.0 143:1.0 145:1.0 146:1.0 147:1.0 148:1.0 149:1.0 150:1.0 151:1.0 152:1.0 153:1.0 154:1.0 155:1.0 156:1.0 161:1.0 162:1.0 163:1.0 164:1.0 167:1.0 168:1.0 170:1.0 171:1.0 172:1.0 173:1.0 174:1.0 175:1.0 176:1.0 177:1.0 178:1.0 181:1.0 182:1.0 183:1.0 184:1.0 185:1.0 186:1.0 187:1.0 190:1.0 192:1.0 193:1.0 194:1.0 196:1.0 198:1.0 199:1.0 200:1.0 201:1.0 203:1.0 204:1.0 205:1.0 207:1.0 208:1.0 209:1.0 210:1.0 211:1.0 212:1.0 213:1.0 214:1.0 215:1.0 216:1.0 217:1.0 218:1.0 219:1.0 220:1.0 221:1.0 223:1.0 225:1.0 227:1.0 228:1.0 229:1.0 230:1.0 231:1.0 232:1.0 233:1.0 234:1.0 235:1.0 236:1.0 237:1.0 238:1.0 241:1.0 242:1.0 243:1.0 
0.0 0.0 0.0 0.0 0.0 0.0 0.14005160518556395 0.0 0.0 0.0 0.0 0.0 1.0 0.5327855153480985 0.0 0.0 0.0 0.0 0.0 0.0 0.0 0.0 0:1.0 3:1.0 4:1.0 6:1.0 7:1.0 8:1.0 9:1.0 14:1.0 15:1.0 23:1.0 24:1.0 30:1.0 31:1.0 32:1.0 34:1.0 43:1.0 49:1.0 50:1.0 56:1.0 63:1.0 64:1.0 66:1.0 70:1.0 73:1.0 76:1.0 77:1.0 81:1.0 87:1.0 89:1.0 91:1.0 92:1.0 97:1.0 100:1.0 103:1.0 105:1.0 106:1.0 108:1.0 109:1.0 120:1.0 128:1.0 139:1.0 140:1.0 142:1.0 146:1.0 147:1.0 148:1.0 149:1.0 154:1.0 156:1.0 175:1.0 177:1.0 184:1.0 185:1.0 192:1.0 198:1.0 201:1.0 204:1.0 205:1.0 208:1.0 210:1.0 213:1.0 214:1.0 218:1.0 219:1.0 220:1.0 227:1.0 228:1.0 231:1.0 232:1.0 233:1.0 234:1.0 235:1.0 236:1.0 243:1.0 
0.0 0.0 0.0 0.0 0.0 0.0 0.07713880470271806 0.0 0.42473099116858226 0.0 0.0 0.0 0.0 0.0 0.31529294557451587 0.0 1.0 0.0 0.08113383500847929 0.0 0.0 0.0 0:1.0 3:1.0 4:1.0 7:1.0 9:1.0 14:1.0 15:1.0 23:1.0 24:1.0 25:1.0 28:1.0 30:1.0 31:1.0 32:1.0 34:1.0 35:1.0 36:1.0 37:1.0 39:1.0 43:1.0 44:1.0 47:1.0 49:1.0 56:1.0 62:1.0 64:1.0 65:1.0 66:1.0 69:1.0 70:1.0 73:1.0 76:1.0 77:1.0 81:1.0 82:1.0 83:1.0 88:1.0 90:1.0 92:1.0 93:1.0 94:1.0 97:1.0 98:1.0 100:1.0 103:1.0 104:1.0 108:1.0 120:1.0 121:1.0 123:1.0 128:1.0 139:1.0 140:1.0 146:1.0 147:1.0 149:1.0 156:1.0 169:1.0 177:1.0 185:1.0 190:1.0 192:1.0 193:1.0 201:1.0 204:1.0 205:1.0 207:1.0 210:1.0 214:1.0 218:1.0 219:1.0 220:1.0 227:1.0 228:1.0 231:1.0 232:1.0 233:1.0 234:1.0 235:1.0 236:1.0 238:1.0 241:1.0 243:1.0 
1.0 1.0 0.0 0.23113507072995934 1.0 1.0 1.0 1.0 0.0 0.0 0.0 0.0 1.0 1.0 1.0 0.0 1.0 0.0 1.0 0.32100969531643814 0.24789290012314988 0.7692521720635301 3:1.0 4:1.0 6:1.0 9:1.0 15:1.0 20:1.0 25:1.0 28:1.0 30:1.0 32:1.0 43:1.0 49:1.0 64:1.0 69:1.0 73:1.0 76:1.0 81:1.0 91:1.0 92:1.0 98:1.0 102:1.0 120:1.0 122:1.0 128:1.0 139:1.0 140:1.0 146:1.0 147:1.0 148:1.0 154:1.0 155:1.0 156:1.0 173:1.0 175:1.0 183:1.0 185:1.0 192:1.0 204:1.0 210:1.0 214:1.0 220:1.0 228:1.0 231:1.0 232:1.0 242:1.0 243:1.0 
1.0 1.0 0.0 0.0 1.0 0.9427992531488709 1.0 1.0 1.0 0.4617081720890515 0.0 1.0 1.0 1.0 1.0 0.9093581871247238 1.0 0.0 1.0 1.0 1.0 1.0 0:1.0 2:1.0 3:1.0 4:1.0 6:1.0 7:1.0 8:1.0 9:1.0 14:1.0 15:1.0 21:1.0 23:1.0 26:1.0 27:1.0 28:1.0 30:1.0 32:1.0 33:1.0 34:1.0 36:1.0 40:1.0 41:1.0 43:1.0 46:1.0 49:1.0 50:1.0 52:1.0 53:1.0 54:1.0 56:1.0 62:1.0 64:1.0 70:1.0 73:1.0 74:1.0 76:1.0 77:1.0 81:1.0 82:1.0 83:1.0 87:1.0 89:1.0 90:1.0 91:1.0 95:1.0 98:1.0 100:1.0 101:1.0 102:1.0 103:1.0 104:1.0 105:1.0 108:1.0 109:1.0 110:1.0 112:1.0 113:1.0 114:1.0 115:1.0 116:1.0 117:1.0 119:1.0 120:1.0 122:1.0 123:1.0 126:1.0 128:1.0 131:1.0 132:1.0 133:1.0 134:1.0 135:1.0 136:1.0 139:1.0 140:1.0 142:1.0 145:1.0 146:1.0 147:1.0 148:1.0 149:1.0 151:1.0 155:1.0 156:1.0 162:1.0 163:1.0 164:1.0 169:1.0 170:1.0 171:1.0 172:1.0 173:1.0 174:1.0 175:1.0 176:1.0 177:1.0 183:1.0 184:1.0 185:1.0 188:1.0 192:1.0 193:1.0 195:1.0 196:1.0 201:1.0 202:1.0 203:1.0 204:1.0 205:1.0 206:1.0 207:1.0 208:1.0 209:1.0 210:1.0 211:1.0 212:1.0 213:1.0 217:1.0 218:1.0 219:1.0 220:1.0 223:1.0 227:1.0 228:1.0 230:1.0 231:1.0 232:1.0 233:1.0 234:1.0 236:1.0 242:1.0 
1.0 1.0 1.0 1.0 1.0 1.0 1.0 1.0 1.0 1.0 1.0 1.0 1.0 1.0 1.0 1.0 1.0 1.0 1.0 1.0 1.0 1.0 0:1.0 3:1.0 4:1.0 6:1.0 8:1.0 9:1.0 15:1.0 17:1.0 26:1.0 28:1.0 31:1.0 32:1.0 33:1.0 35:1.0 36:1.0 37:1.0 39:1.0 44:1.0 45:1.0 47:1.0 48:1.0 49:1.0 50:1.0 51:1.0 52:1.0 57:1.0 59:1.0 60:1.0 62:1.0 64:1.0 68:1.0 69:1.0 70:1.0 72:1.0 75:1.0 81:1.0 87:1.0 91:1.0 100:1.0 102:1.0 105:1.0 106:1.0 108:1.0 109:1.0 110:1.0 111:1.0 112:1.0 115:1.0 116:1.0 118:1.0 120:1.0 128:1.0 131:1.0 133:1.0 134:1.0 135:1.0 136:1.0 140:1.0 142:1.0 145:1.0 147:1.0 149:1.0 151:1.0 153:1.0 159:1.0 160:1.0 161:1.0 164:1.0 165:1.0 166:1.0 171:1.0 173:1.0 175:1.0 183:1.0 185:1.0 186:1.0 189:1.0 192:1.0 193:1.0 196:1.0 198:1.0 201:1.0 210:1.0 211:1.0 213:1.0 214:1.0 215:1.0 216:1.0 217:1.0 218:1.0 223:1.0 224:1.0 230:1.0 231:1.0 232:1.0 233:1.0 236:1.0 239:1.0 240:1.0 243:1.0 
1.0 0.0 0.0 0.0 1.0 0.0 1.0 0.6186183651771547 0.0 0.0 0.0 1.0 1.0 1.0 1.0 0.0 1.0 0.0 0.19083068780483495 1.0 0.0 0.0 1:1.0 2:1.0 3:1.0 4:1.0 5:1.0 7:1.0 8:1.0 9:1.0 15:1.0 23:1.0 25:1.0 27:1.0 28:1.0 30:1.0 31:1.0 32:1.0 33:1.0 35:1.0 37:1.0 38:1.0 39:1.0 43:1.0 44:1.0 46:1.0 49:1.0 52:1.0 60:1.0 61:1.0 64:1.0 66:1.0 67:1.0 68:1.0 69:1.0 70:1.0 73:1.0 75:1.0 76:1.0 77:1.0 81:1.0 86:1.0 87:1.0 91:1.0 92:1.0 97:1.0 98:1.0 99:1.0 100:1.0 103:1.0 106:1.0 108:1.0 109:1.0 112:1.0 113:1.0 114:1.0 120:1.0 122:1.0 126:1.0 127:1.0 128:1.0 131:1.0 132:1.0 133:1.0 136:1.0 139:1.0 140:1.0 145:1.0 146:1.0 147:1.0 148:1.0 149:1.0 151:1.0 155:1.0 156:1.0 164:1.0 166:1.0 171:1.0 173:1.0 175:1.0 183:1.0 184:1.0 185:1.0 190:1.0 191:1.0 192:1.0 198:1.0 201:1.0 204:1.0 205:1.0 206:1.0 207:1.0 209:1.0 210:1.0 213:1.0 214:1.0 216:1.0 217:1.0 218:1.0 219:1.0 220:1.0 222:1.0 224:1.0 228:1.0 231:1.0 232:1.0 233:1.0 234:1.0 235:1.0 241:1.0 242:1.0 
1.0 1.0 1.0 1.0 1.0 1.0 1.0 1.0 1.0 1.0 1.0 1.0 1.0 1.0 1.0 1.0 1.0 1.0 1.0 1.0 1.0 1.0 0:1.0 2:1.0 7:1.0 8:1.0 9:1.0 10:1.0 14:1.0 15:1.0 25:1.0 28:1.0 31:1.0 33:1.0 34:1.0 36:1.0 37:1.0 40:1.0 41:1.0 43:1.0 44:1.0 46:1.0 49:1.0 50:1.0 53:1.0 54:1.0 60:1.0 61:1.0 63:1.0 64:1.0 66:1.0 67:1.0 68:1.0 69:1.0 70:1.0 73:1.0 76:1.0 77:1.0 81:1.0 82:1.0 87:1.0 91:1.0 92:1.0 98:1.0 99:1.0 100:1.0 108:1.0 112:1.0 113:1.0 114:1.0 116:1.0 120:1.0 121:1.0 123:1.0 125:1.0 128:1.0 131:1.0 134:1.0 135:1.0 139:1.0 140:1.0 141:1.0 146:1.0 147:1.0 149:1.0 154:1.0 155:1.0 156:1.0 161:1.0 162:1.0 169:1.0 171:1.0 173:1.0 175:1.0 177:1.0 182:1.0 183:1.0 185:1.0 188:1.0 194:1.0 201:1.0 203:1.0 204:1.0 207:1.0 210:1.0 211:1.0 212:1.0 213:1.0 214:1.0 218:1.0 228:1.0 230:1.0 231:1.0 232:1.0 233:1.0 235:1.0 243:1.0 
1.0 0.0 0.0 0.5884079260354464 1.0 0.5915549918815058 1.0 1.0 0.0 0.041649993151161815 0.0 1.0 1.0 0.5993676633556817 1.0 0.0 1.0 0.0 0.0 1.0 0.0 0.771892214058906 0:1.0 3:1.0 4:1.0 7:1.0 8:1.0 9:1.0 14:1.0 15:1.0 20:1.0 23:1.0 25:1.0 26:1.0 28:1.0 29:1.0 30:1.0 32:1.0 33:1.0 43:1.0 44:1.0 49:1.0 52:1.0 63:1.0 64:1.0 69:1.0 70:1.0 73:1.0 76:1.0 81:1.0 83:1.0 88:1.0 89:1.0 90:1.0 91:1.0 92:1.0 100:1.0 102:1.0 103:1.0 108:1.0 109:1.0 115:1.0 117:1.0 118:1.0 120:1.0 128:1.0 131:1.0 133:1.0 136:1.0 139:1.0 142:1.0 145:1.0 146:1.0 147:1.0 148:1.0 149:1.0 151:1.0 164:1.0 166:1.0 172:1.0 175:1.0 184:1.0 185:1.0 192:1.0 196:1.0 201:1.0 205:1.0 213:1.0 214:1.0 218:1.0 219:1.0 220:1.0 224:1.0 227:1.0 228:1.0 231:1.0 232:1.0 233:1.0 236:1.0 241:1.0 
1.0 0.835263061945819 0.0 0.0 1.0 0.0 1.0 1.0 0.0 0.0 0.0 0.13122410402081439 1.0 1.0 1.0 0.0 1.0 0.0 1.0 0.4782111622880795 0.0 0.0 3:1.0 4:1.0 6:1.0 7:1.0 9:1.0 15:1.0 24:1.0 25:1.0 30:1.0 43:1.0 45:1.0 49:1.0 50:1.0 52:1.0 56:1.0 63:1.0 64:1.0 70:1.0 73:1.0 76:1.0 81:1.0 87:1.0 88:1.0 89:1.0 91:1.0 96:1.0 100:1.0 103:1.0 108:1.0 109:1.0 112:1.0 113:1.0 120:1.0 121:1.0 122:1.0 126:1.0 128:1.0 131:1.0 133:1.0 134:1.0 136:1.0 139:1.0 140:1.0 146:1.0 149:1.0 150:1.0 151:1.0 156:1.0 164:1.0 166:1.0 173:1.0 175:1.0 184:1.0 185:1.0 192:1.0 198:1.0 199:1.0 201:1.0 204:1.0 205:1.0 210:1.0 214:1.0 219:1.0 220:1.0 231:1.0 232:1.0 233:1.0 234:1.0 235:1.0 
1.0 0.0 0.7703209964855529 0.0 1.0 0.0 1.0 1.0 0.0 0.4349695009498649 0.951656820452978 0.10297927384388064 1.0 1.0 1.0 0.30367849943823 1.0 0.10506354991510335 0.347830170788055 0.0 0.0 0.0 2:1.0 3:1.0 4:1.0 6:1.0 7:1.0 8:1.0 9:1.0 10:1.0 14:1.0 15:1.0 19:1.0 23:1.0 25:1.0 26:1.0 28:1.0 29:1.0 30:1.0 32:1.0 33:1.0 34:1.0 35:1.0 37:1.0 38:1.0 43:1.0 44:1.0 45:1.0 46:1.0 49:1.0 51:1.0 52:1.0 57:1.0 61:1.0 63:1.0 64:1.0 67:1.0 68:1.0 70:1.0 73:1.0 76:1.0 77:1.0 81:1.0 82:1.0 84:1.0 88:1.0 89:1.0 91:1.0 92:1.0 94:1.0 96:1.0 97:1.0 100:1.0 101:1.0 102:1.0 103:1.0 105:1.0 106:1.0 108:1.0 109:1.0 110:1.0 114:1.0 116:1.0 117:1.0 118:1.0 120:1.0 121:1.0 122:1.0 123:1.0 126:1.0 127:1.0 128:1.0 131:1.0 132:1.0 133:1.0 134:1.0 135:1.0 136:1.0 139:1.0 140:1.0 145:1.0 146:1.0 147:1.0 148:1.0 149:1.0 151:1.0 154:1.0 155:1.0 156:1.0 166:1.0 173:1.0 175:1.0 178:1.0 180:1.0 183:1.0 184:1.0 185:1.0 192:1.0 198:1.0 201:1.0 204:1.0 205:1.0 208:1.0 210:1.0 211:1.0 212:1.0 213:1.0 218:1.0 219:1.0 220:1.0 224:1.0 228:1.0 231:1.0 232:1.0 233:1.0 234:1.0 235:1.0 236:1.0 238:1.0 242:1.0 243:1.0 
1.0 1.0 1.0 1.0 1.0 1.0 1.0 1.0 0.6972298414582458 1.0 1.0 0.19093179372332036 1.0 1.0 1.0 1.0 1.0 1.0 1.0 1.0 1.0 1.0 3:1.0 4:1.0 6:1.0 8:1.0 14:1.0 15:1.0 21:1.0 23:1.0 32:1.0 33:1.0 35:1.0 56:1.0 73:1.0 76:1.0 81:1.0 82:1.0 83:1.0 92:1.0 94:1.0 97:1.0 100:1.0 102:1.0 103:1.0 108:1.0 109:1.0 112:1.0 116:1.0 117:1.0 119:1.0 120:1.0 139:1.0 140:1.0 146:1.0 147:1.0 154:1.0 155:1.0 175:1.0 178:1.0 181:1.0 183:1.0 203:1.0 204:1.0 211:1.0 214:1.0 218:1.0 242:1.0 243:1.0 
1.0 0.0 0.0 0.0 0.0 0.0 1.0 0.4503168544069476 0.0808087252521468 0.0 0.0 1.0 1.0 1.0 1.0 0.0 1.0 0.0 1.0 0.13396190916254172 0.0 0.03734722260600443 3:1.0 4:1.0 6:1.0 7:1.0 8:1.0 9:1.0 14:1.0 15:1.0 23:1.0 24:1.0 25:1.0 28:1.0 31:1.0 32:1.0 34:1.0 36:1.0 37:1.0 43:1.0 44:1.0 46:1.0 49:1.0 50:1.0 53:1.0 61:1.0 64:1.0 69:1.0 73:1.0 76:1.0 77:1.0 78:1.0 81:1.0 88:1.0 92:1.0 94:1.0 97:1.0 98:1.0 99:1.0 100:1.0 102:1.0 103:1.0 108:1.0 109:1.0 112:1.0 115:1.0 120:1.0 123:1.0 128:1.0 131:1.0 133:1.0 134:1.0 135:1.0 136:1.0 139:1.0 140:1.0 145:1.0 146:1.0 147:1.0 148:1.0 149:1.0 150:1.0 154:1.0 155:1.0 156:1.0 164:1.0 166:1.0 170:1.0 171:1.0 173:1.0 175:1.0 177:1.0 183:1.0 192:1.0 201:1.0 202:1.0 204:1.0 205:1.0 207:1.0 210:1.0 212:1.0 213:1.0 214:1.0 217:1.0 218:1.0 219:1.0 220:1.0 227:1.0 228:1.0 231:1.0 232:1.0 233:1.0 234:1.0 235:1.0 241:1.0 242:1.0 
1.0 0.0 0.0513648315784407 0.9338578670551411 1.0 0.15529464032191104 0.3506313351700944 0.0 0.0 1.0 0.0 0.0 1.0 1.0 0.44455793224764006 1.0 0.9628132454393344 0.2643136324407162 0.7881555684662035 0.0 0.0 0.0 2:1.0 3:1.0 4:1.0 6:1.0 8:1.0 9:1.0 14:1.0 15:1.0 19:1.0 23:1.0 25:1.0 30:1.0 32:1.0 35:1.0 39:1.0 43:1.0 44:1.0 49:1.0 51:1.0 52:1.0 56:1.0 63:1.0 64:1.0 65:1.0 70:1.0 73:1.0 76:1.0 77:1.0 81:1.0 82:1.0 83:1.0 90:1.0 91:1.0 92:1.0 97:1.0 100:1.0 103:1.0 105:1.0 107:1.0 108:1.0 109:1.0 112:1.0 117:1.0 119:1.0 120:1.0 125:1.0 126:1.0 128:1.0 132:1.0 136:1.0 139:1.0 140:1.0 145:1.0 146:1.0 147:1.0 149:1.0 150:1.0 151:1.0 154:1.0 155:1.0 156:1.0 164:1.0 175:1.0 177:1.0 185:1.0 192:1.0 193:1.0 199:1.0 200:1.0 201:1.0 205:1.0 207:1.0 210:1.0 211:1.0 213:1.0 214:1.0 219:1.0 220:1.0 225:1.0 231:1.0 232:1.0 233:1.0 234:1.0 235:1.0 236:1.0 241:1.0 243:1.0 
0.0 0.0 0.0 0.0 0.0 0.0 0.7946749658817227 0.0 0.0 0.0 0.0 0.0 1.0 1.0 0.0 0.0 0.0 0.0 0.0 0.0 0.0 0.0 3:1.0 4:1.0 7:1.0 8:1.0 11:1.0 14:1.0 15:1.0 23:1.0 24:1.0 25:1.0 28:1.0 34:1.0 36:1.0 37:1.0 38:1.0 43:1.0 44:1.0 45:1.0 46:1.0 48:1.0 49:1.0 51:1.0 52:1.0 56:1.0 57:1.0 63:1.0 64:1.0 70:1.0 73:1.0 74:1.0 76:1.0 77:1.0 81:1.0 82:1.0 83:1.0 86:1.0 88:1.0 89:1.0 90:1.0 92:1.0 98:1.0 100:1.0 103:1.0 105:1.0 108:1.0 109:1.0 112:1.0 114:1.0 120:1.0 121:1.0 123:1.0 128:1.0 132:1.0 136:1.0 139:1.0 140:1.0 146:1.0 147:1.0 148:1.0 149:1.0 151:1.0 154:1.0 155:1.0 156:1.0 175:1.0 184:1.0 185:1.0 186:1.0 192:1.0 201:1.0 203:1.0 204:1.0 205:1.0 210:1.0 211:1.0 212:1.0 213:1.0 216:1.0 217:1.0 218:1.0 219:1.0 220:1.0 227:1.0 228:1.0 229:1.0 231:1.0 232:1.0 233:1.0 234:1.0 235:1.0 236:1.0 237:1.0 238:1.0 241:1.0 243:1.0 
1.0 1.0 1.0 1.0 1.0 1.0 1.0 1.0 1.0 1.0 1.0 0.09831574475294809 0.544251661072381 1.0 0.8032365297166967 1.0 1.0 1.0 1.0 1.0 1.0 1.0 3:1.0 4:1.0 6:1.0 7:1.0 10:1.0 22:1.0 29:1.0 35:1.0 37:1.0 41:1.0 44:1.0 50:1.0 60:1.0 63:1.0 77:1.0 82:1.0 83:1.0 91:1.0 93:1.0 94:1.0 99:1.0 101:1.0 103:1.0 104:1.0 106:1.0 112:1.0 116:1.0 117:1.0 120:1.0 125:1.0 128:1.0 139:1.0 145:1.0 150:1.0 155:1.0 160:1.0 161:1.0 164:1.0 169:1.0 180:1.0 181:1.0 183:1.0 184:1.0 185:1.0 187:1.0 194:1.0 205:1.0 207:1.0 208:1.0 213:1.0 217:1.0 219:1.0 220:1.0 222:1.0 232:1.0 235:1.0 236:1.0 
0.0 1.0 0.37135288730800836 0.16348583883610016 0.0 0.0 0.5928282891953064 0.24982134347383386 0.0 0.0 0.0 0.0 1.0 1.0 0.0 0.0 1.0 0.0 1.0 0.0 0.0 0.0 2:1.0 3:1.0 4:1.0 6:1.0 7:1.0 8:1.0 9:1.0 14:1.0 17:1.0 19:1.0 23:1.0 25:1.0 28:1.0 30:1.0 31:1.0 39:1.0 43:1.0 44:1.0 46:1.0 50:1.0 59:1.0 63:1.0 64:1.0 66:1.0 67:1.0 69:1.0 73:1.0 76:1.0 77:1.0 79:1.0 81:1.0 82:1.0 83:1.0 91:1.0 94:1.0 97:1.0 98:1.0 99:1.0 100:1.0 106:1.0 108:1.0 109:1.0 112:1.0 114:1.0 120:1.0 123:1.0 128:1.0 131:1.0 132:1.0 133:1.0 134:1.0 139:1.0 140:1.0 142:1.0 145:1.0 146:1.0 147:1.0 148:1.0 149:1.0 150:1.0 151:1.0 154:1.0 156:1.0 164:1.0 171:1.0 175:1.0 183:1.0 192:1.0 193:1.0 199:1.0 200:1.0 201:1.0 203:1.0 204:1.0 213:1.0 214:1.0 218:1.0 219:1.0 220:1.0 231:1.0 232:1.0 233:1.0 234:1.0 243:1.0 
1.0 1.0 1.0 1.0 1.0 1.0 1.0 1.0 1.0 1.0 1.0 1.0 0.6628611364264255 1.0 1.0 1.0 1.0 1.0 1.0 1.0 1.0 1.0 4:1.0 7:1.0 8:1.0 10:1.0 14:1.0 21:1.0 31:1.0 32:1.0 37:1.0 44:1.0 60:1.0 84:1.0 91:1.0 97:1.0 102:1.0 103:1.0 104:1.0 125:1.0 134:1.0 148:1.0 150:1.0 151:1.0 154:1.0 155:1.0 183:1.0 185:1.0 186:1.0 196:1.0 203:1.0 213:1.0 217:1.0 220:1.0 228:1.0 
1.0 0.0 1.0 1.0 1.0 1.0 1.0 1.0 1.0 1.0 1.0 1.0 0.3501396825607423 1.0 1.0 1.0 1.0 1.0 1.0 1.0 1.0 1.0 0:1.0 3:1.0 4:1.0 6:1.0 7:1.0 8:1.0 9:1.0 11:1.0 12:1.0 13:1.0 14:1.0 15:1.0 17:1.0 19:1.0 21:1.0 23:1.0 24:1.0 25:1.0 28:1.0 29:1.0 31:1.0 32:1.0 33:1.0 34:1.0 35:1.0 36:1.0 37:1.0 40:1.0 43:1.0 44:1.0 45:1.0 47:1.0 49:1.0 50:1.0 51:1.0 53:1.0 54:1.0 55:1.0 56:1.0 57:1.0 60:1.0 61:1.0 62:1.0 63:1.0 64:1.0 66:1.0 67:1.0 69:1.0 70:1.0 73:1.0 75:1.0 76:1.0 77:1.0 81:1.0 82:1.0 83:1.0 86:1.0 87:1.0 88:1.0 90:1.0 91:1.0 92:1.0 93:1.0 94:1.0 97:1.0 98:1.0 99:1.0 100:1.0 102:1.0 103:1.0 106:1.0 107:1.0 108:1.0 109:1.0 112:1.0 114:1.0 116:1.0 118:1.0 119:1.0 120:1.0 121:1.0 123:1.0 125:1.0 126:1.0 128:1.0 129:1.0 131:1.0 132:1.0 133:1.0 134:1.0 135:1.0 136:1.0 139:1.0 140:1.0 141:1.0 142:1.0 143:1.0 146:1.0 147:1.0 148:1.0 149:1.0 150:1.0 151:1.0 152:1.0 153:1.0 154:1.0 155:1.0 156:1.0 159:1.0 160:1.0 161:1.0 164:1.0 171:1.0 172:1.0 173:1.0 174:1.0 175:1.0 176:1.0 177:1.0 178:1.0 183:1.0 184:1.0 185:1.0 188:1.0 190:1.0 191:1.0 192:1.0 193:1.0 194:1.0 197:1.0 201:1.0 203:1.0 204:1.0 205:1.0 206:1.0 207:1.0 209:1.0 210:1.0 211:1.0 212:1.0 213:1.0 214:1.0 215:1.0 217:1.0 218:1.0 219:1.0 220:1.0 222:1.0 224:1.0 226:1.0 227:1.0 228:1.0 229:1.0 230:1.0 231:1.0 232:1.0 233:1.0 234:1.0 235:1.0 236:1.0 237:1.0 238:1.0 239:1.0 241:1.0 242:1.0 243:1.0 
1.0 1.0 1.0 1.0 1.0 1.0 1.0 1.0 1.0 1.0 1.0 1.0 1.0 1.0 1.0 1.0 1.0 1.0 1.0 1.0 1.0 1.0 0:1.0 3:1.0 6:1.0 7:1.0 8:1.0 9:1.0 14:1.0 15:1.0 19:1.0 20:1.0 23:1.0 29:1.0 30:1.0 33:1.0 36:1.0 37:1.0 44:1.0 46:1.0 49:1.0 50:1.0 51:1.0 52:1.0 54:1.0 60:1.0 63:1.0 64:1.0 68:1.0 69:1.0 73:1.0 74:1.0 76:1.0 77:1.0 81:1.0 84:1.0 85:1.0 88:1.0 90:1.0 91:1.0 92:1.0 95:1.0 97:1.0 100:1.0 101:1.0 102:1.0 103:1.0 106:1.0 108:1.0 109:1.0 111:1.0 112:1.0 113:1.0 114:1.0 119:1.0 120:1.0 123:1.0 125:1.0 126:1.0 128:1.0 133:1.0 136:1.0 139:1.0 145:1.0 146:1.0 148:1.0 149:1.0 150:1.0 151:1.0 164:1.0 168:1.0 171:1.0 173:1.0 175:1.0 184:1.0 185:1.0 192:1.0 193:1.0 198:1.0 200:1.0 201:1.0 203:1.0 205:1.0 207:1.0 208:1.0 209:1.0 210:1.0 213:1.0 214:1.0 217:1.0 218:1.0 219:1.0 220:1.0 224:1.0 225:1.0 227:1.0 228:1.0 229:1.0 231:1.0 232:1.0 233:1.0 234:1.0 235:1.0 236:1.0 239:1.0 241:1.0 
0.9001362692836293 1.0 1.0 1.0 1.0 1.0 0.2092579425342491 1.0 1.0 1.0 1.0 0.9079851620155206 0.009637646707496127 1.0 0.8230252238949878 1.0 1.0 1.0 1.0 1.0 1.0 1.0 0:1.0 3:1.0 4:1.0 6:1.0 8:1.0 11:1.0 14:1.0 21:1.0 28:1.0 29:1.0 31:1.0 35:1.0 36:1.0 37:1.0 43:1.0 44:1.0 46:1.0 48:1.0 53:1.0 62:1.0 63:1.0 65:1.0 66:1.0 71:1.0 73:1.0 76:1.0 77:1.0 81:1.0 83:1.0 84:1.0 91:1.0 92:1.0 93:1.0 97:1.0 98:1.0 99:1.0 102:1.0 106:1.0 108:1.0 109:1.0 115:1.0 125:1.0 128:1.0 139:1.0 140:1.0 145:1.0 146:1.0 147:1.0 149:1.0 150:1.0 151:1.0 154:1.0 155:1.0 161:1.0 175:1.0 184:1.0 185:1.0 192:1.0 194:1.0 197:1.0 201:1.0 203:1.0 204:1.0 208:1.0 209:1.0 210:1.0 227:1.0 231:1.0 232:1.0 233:1.0 234:1.0 235:1.0 243:1.0 
1.0 0.0 1.0 1.0 1.0 0.0 1.0 1.0 0.0 1.0 0.0 1.0 1.0 1.0 1.0 1.0 1.0 0.9897718726718083 1.0 1.0 0.0 0.9391174921770162 3:1.0 4:1.0 6:1.0 7:1.0 8:1.0 9:1.0 15:1.0 19:1.0 20:1.0 23:1.0 25:1.0 27:1.0 28:1.0 29:1.0 30:1.0 31:1.0 32:1.0 33:1.0 35:1.0 37:1.0 39:1.0 43:1.0 45:1.0 49:1.0 50:1.0 51:1.0 52:1.0 56:1.0 60:1.0 63:1.0 64:1.0 66:1.0 67:1.0 68:1.0 70:1.0 73:1.0 76:1.0 77:1.0 81:1.0 82:1.0 83:1.0 86:1.0 90:1.0 91:1.0 92:1.0 96:1.0 98:1.0 100:1.0 102:1.0 103:1.0 105:1.0 106:1.0 107:1.0 110:1.0 112:1.0 113:1.0 114:1.0 116:1.0 117:1.0 119:1.0 120:1.0 125:1.0 126:1.0 128:1.0 132:1.0 136:1.0 139:1.0 142:1.0 145:1.0 146:1.0 148:1.0 150:1.0 151:1.0 152:1.0 164:1.0 166:1.0 171:1.0 173:1.0 175:1.0 177:1.0 183:1.0 185:1.0 192:1.0 193:1.0 198:1.0 199:1.0 201:1.0 205:1.0 206:1.0 207:1.0 210:1.0 211:1.0 212:1.0 213:1.0 216:1.0 217:1.0 218:1.0 220:1.0 225:1.0 227:1.0 228:1.0 230:1.0 231:1.0 232:1.0 233:1.0 234:1.0 235:1.0 236:1.0 237:1.0 238:1.0 241:1.0 243:1.0 
0.0 0.0 0.6740365101915626 0.0 0.0 0.9469834196742497 0.0 0.0 0.0 0.10774026056248297 0.6961389874321251 0.0 0.0 0.0 0.0 0.5540684645791862 1.0 0.11361114977714512 1.0 0.0 0.0 0.0 0:1.0 2:1.0 3:1.0 4:1.0 6:1.0 7:1.0 8:1.0 9:1.0 11:1.0 12:1.0 14:1.0 15:1.0 19:1.0 20:1.0 23:1.0 24:1.0 25:1.0 28:1.0 29:1.0 30:1.0 31:1.0 32:1.0 34:1.0 35:1.0 37:1.0 39:1.0 43:1.0 44:1.0 47:1.0 49:1.0 50:1.0 51:1.0 52:1.0 53:1.0 56:1.0 57:1.0 58:1.0 60:1.0 61:1.0 63:1.0 64:1.0 65:1.0 66:1.0 68:1.0 70:1.0 73:1.0 76:1.0 77:1.0 81:1.0 82:1.0 83:1.0 84:1.0 87:1.0 88:1.0 90:1.0 91:1.0 92:1.0 93:1.0 95:1.0 97:1.0 98:1.0 99:1.0 100:1.0 101:1.0 102:1.0 103:1.0 106:1.0 107:1.0 108:1.0 109:1.0 112:1.0 113:1.0 114:1.0 116:1.0 119:1.0 120:1.0 121:1.0 122:1.0 123:1.0 125:1.0 128:1.0 133:1.0 134:1.0 135:1.0 136:1.0 139:1.0 140:1.0 142:1.0 143:1.0 145:1.0 146:1.0 147:1.0 148:1.0 149:1.0 150:1.0 151:1.0 154:1.0 155:1.0 156:1.0 161:1.0 164:1.0 167:1.0 168:1.0 171:1.0 173:1.0 175:1.0 177:1.0 178:1.0 183:1.0 184:1.0 185:1.0 186:1.0 187:1.0 190:1.0 191:1.0 192:1.0 193:1.0 198:1.0 201:1.0 204:1.0 205:1.0 207:1.0 209:1.0 210:1.0 212:1.0 213:1.0 214:1.0 215:1.0 217:1.0 218:1.0 219:1.0 220:1.0 227:1.0 228:1.0 229:1.0 231:1.0 232:1.0 233:1.0 234:1.0 235:1.0 237:1.0 238:1.0 241:1.0 242:1.0 243:1.0 
0.9456474299391965 0.0 0.0 0.4240477143715343 0.9749341933236164 1.0 0.9946476460378614 0.026348018161987435 0.345115917346433 0.0 0.23179519318063213 0.3424435028419627 0.0 1.0 1.0 0.014473931912354028 1.0 0.7446160163668252 1.0 0.0 0.0 0.9249102833881833 3:1.0 4:1.0 6:1.0 8:1.0 14:1.0 15:1.0 23:1.0 25:1.0 33:1.0 35:1.0 36:1.0 37:1.0 39:1.0 44:1.0 51:1.0 56:1.0 57:1.0 62:1.0 64:1.0 67:1.0 70:1.0 73:1.0 74:1.0 76:1.0 77:1.0 81:1.0 82:1.0 83:1.0 91:1.0 97:1.0 98:1.0 99:1.0 100:1.0 103:1.0 109:1.0 112:1.0 114:1.0 115:1.0 119:1.0 120:1.0 121:1.0 128:1.0 131:1.0 139:1.0 140:1.0 141:1.0 144:1.0 146:1.0 147:1.0 148:1.0 150:1.0 154:1.0 155:1.0 156:1.0 170:1.0 171:1.0 172:1.0 177:1.0 183:1.0 185:1.0 187:1.0 192:1.0 193:1.0 194:1.0 199:1.0 203:1.0 205:1.0 207:1.0 210:1.0 213:1.0 219:1.0 220:1.0 227:1.0 228:1.0 231:1.0 233:1.0 234:1.0 235:1.0 237:1.0 238:1.0 241:1.0 243:1.0 
1.0 0.9208160068088161 0.0 0.5775878634591005 1.0 1.0 0.4814605537406468 0.7924611119237388 1.0 1.0 0.0 1.0 1.0 0.1330022144119661 0.0 1.0 1.0 0.0826315925538206 0.0 0.0 0.0 1.0 3:1.0 4:1.0 6:1.0 7:1.0 8:1.0 9:1.0 12:1.0 13:1.0 15:1.0 23:1.0 29:1.0 30:1.0 32:1.0 34:1.0 43:1.0 44:1.0 48:1.0 49:1.0 50:1.0 51:1.0 52:1.0 58:1.0 63:1.0 64:1.0 66:1.0 67:1.0 73:1.0 76:1.0 77:1.0 81:1.0 86:1.0 88:1.0 90:1.0 91:1.0 92:1.0 97:1.0 99:1.0 100:1.0 102:1.0 103:1.0 105:1.0 108:1.0 120:1.0 131:1.0 132:1.0 136:1.0 139:1.0 140:1.0 144:1.0 146:1.0 147:1.0 148:1.0 149:1.0 154:1.0 156:1.0 159:1.0 160:1.0 161:1.0 162:1.0 163:1.0 164:1.0 171:1.0 173:1.0 175:1.0 183:1.0 185:1.0 186:1.0 187:1.0 188:1.0 192:1.0 195:1.0 199:1.0 201:1.0 204:1.0 205:1.0 210:1.0 218:1.0 219:1.0 220:1.0 228:1.0 230:1.0 231:1.0 232:1.0 233:1.0 234:1.0 236:1.0 241:1.0 243:1.0 
0.0 0.0 1.0 0.5121532849861032 0.0 0.0 0.0 0.0 1.0 0.9260811124267413 0.0 0.0 0.0 0.9439278982380298 0.0 0.4028410507450908 0.5964264468245403 0.13986816822086723 0.0 0.0 0.0 0.0 0:1.0 2:1.0 3:1.0 4:1.0 6:1.0 7:1.0 8:1.0 9:1.0 11:1.0 15:1.0 20:1.0 23:1.0 25:1.0 31:1.0 32:1.0 33:1.0 37:1.0 43:1.0 44:1.0 46:1.0 49:1.0 50:1.0 53:1.0 64:1.0 65:1.0 66:1.0 70:1.0 73:1.0 76:1.0 77:1.0 81:1.0 82:1.0 83:1.0 87:1.0 90:1.0 91:1.0 92:1.0 99:1.0 100:1.0 103:1.0 104:1.0 106:1.0 108:1.0 109:1.0 116:1.0 120:1.0 126:1.0 127:1.0 128:1.0 133:1.0 134:1.0 136:1.0 139:1.0 140:1.0 142:1.0 146:1.0 147:1.0 148:1.0 149:1.0 151:1.0 152:1.0 154:1.0 155:1.0 156:1.0 173:1.0 175:1.0 177:1.0 183:1.0 184:1.0 185:1.0 192:1.0 193:1.0 201:1.0 204:1.0 207:1.0 208:1.0 210:1.0 212:1.0 213:1.0 214:1.0 216:1.0 217:1.0 218:1.0 219:1.0 220:1.0 227:1.0 228:1.0 231:1.0 232:1.0 233:1.0 234:1.0 235:1.0 237:1.0 238:1.0 241:1.0 
1.0 1.0 0.0 0.5191846177806001 0.7669233533381848 0.0 1.0 1.0 0.7080876379907652 0.0 0.0 0.3915339489336492 0.8658368866900484 1.0 0.9914181291763074 0.0 1.0 0.3563910117361402 1.0 0.6009410556897511 0.0 0.0 0:1.0 2:1.0 3:1.0 4:1.0 5:1.0 6:1.0 7:1.0 8:1.0 9:1.0 16:1.0 17:1.0 18:1.0 23:1.0 30:1.0 32:1.0 37:1.0 40:1.0 46:1.0 47:1.0 49:1.0 56:1.0 60:1.0 63:1.0 64:1.0 65:1.0 70:1.0 73:1.0 76:1.0 80:1.0 81:1.0 82:1.0 87:1.0 90:1.0 91:1.0 100:1.0 108:1.0 109:1.0 112:1.0 115:1.0 120:1.0 126:1.0 128:1.0 134:1.0 136:1.0 139:1.0 140:1.0 146:1.0 147:1.0 148:1.0 149:1.0 151:1.0 154:1.0 155:1.0 156:1.0 157:1.0 171:1.0 173:1.0 175:1.0 183:1.0 184:1.0 185:1.0 192:1.0 193:1.0 201:1.0 204:1.0 205:1.0 207:1.0 209:1.0 214:1.0 218:1.0 219:1.0 220:1.0 227:1.0 228:1.0 231:1.0 232:1.0 233:1.0 235:1.0 238:1.0 241:1.0 
1.0 0.8623776440121003 0.7458148911626722 0.0 0.803997668439689 0.0 0.9967276112043254 0.41242940355401986 0.0 0.15190719959467708 0.0 0.0 1.0 1.0 0.0 0.8141399304478896 1.0 0.37048564243084414 1.0 0.0 0.48049376583284265 0.0 2:1.0 3:1.0 4:1.0 6:1.0 7:1.0 8:1.0 9:1.0 10:1.0 11:1.0 12:1.0 14:1.0 15:1.0 17:1.0 18:1.0 19:1.0 20:1.0 21:1.0 23:1.0 24:1.0 25:1.0 26:1.0 27:1.0 28:1.0 29:1.0 30:1.0 31:1.0 32:1.0 33:1.0 34:1.0 35:1.0 37:1.0 38:1.0 39:1.0 43:1.0 44:1.0 46:1.0 48:1.0 49:1.0 51:1.0 52:1.0 55:1.0 56:1.0 57:1.0 59:1.0 60:1.0 62:1.0 64:1.0 66:1.0 67:1.0 68:1.0 70:1.0 73:1.0 74:1.0 76:1.0 77:1.0 81:1.0 82:1.0 83:1.0 86:1.0 87:1.0 88:1.0 89:1.0 90:1.0 91:1.0 92:1.0 97:1.0 100:1.0 103:1.0 104:1.0 105:1.0 108:1.0 109:1.0 112:1.0 113:1.0 114:1.0 116:1.0 117:1.0 118:1.0 119:1.0 120:1.0 121:1.0 122:1.0 123:1.0 125:1.0 126:1.0 127:1.0 128:1.0 131:1.0 132:1.0 133:1.0 135:1.0 136:1.0 138:1.0 139:1.0 140:1.0 141:1.0 142:1.0 145:1.0 146:1.0 147:1.0 148:1.0 149:1.0 150:1.0 154:1.0 155:1.0 156:1.0 157:1.0 164:1.0 166:1.0 171:1.0 172:1.0 173:1.0 175:1.0 177:1.0 178:1.0 183:1.0 184:1.0 185:1.0 192:1.0 193:1.0 199:1.0 200:1.0 201:1.0 202:1.0 203:1.0 204:1.0 205:1.0 207:1.0 210:1.0 211:1.0 212:1.0 213:1.0 214:1.0 215:1.0 217:1.0 218:1.0 219:1.0 220:1.0 223:1.0 226:1.0 227:1.0 228:1.0 229:1.0 230:1.0 231:1.0 232:1.0 233:1.0 234:1.0 235:1.0 236:1.0 237:1.0 238:1.0 241:1.0 242:1.0 243:1.0 
1.0 0.4472903992158113 1.0 1.0 1.0 0.5085890944773563 1.0 1.0 1.0 1.0 1.0 1.0 1.0 1.0 1.0 1.0 1.0 1.0 1.0 1.0 0.6858732828166367 1.0 2:1.0 3:1.0 4:1.0 6:1.0 7:1.0 8:1.0 9:1.0 10:1.0 11:1.0 14:1.0 15:1.0 19:1.0 23:1.0 24:1.0 25:1.0 26:1.0 28:1.0 29:1.0 30:1.0 31:1.0 32:1.0 33:1.0 34:1.0 35:1.0 43:1.0 44:1.0 45:1.0 46:1.0 49:1.0 50:1.0 53:1.0 57:1.0 62:1.0 64:1.0 66:1.0 68:1.0 69:1.0 70:1.0 73:1.0 76:1.0 77:1.0 81:1.0 82:1.0 84:1.0 88:1.0 89:1.0 90:1.0 91:1.0 92:1.0 97:1.0 98:1.0 99:1.0 100:1.0 103:1.0 105:1.0 106:1.0 108:1.0 109:1.0 114:1.0 115:1.0 116:1.0 117:1.0 118:1.0 120:1.0 121:1.0 123:1.0 126:1.0 127:1.0 128:1.0 132:1.0 133:1.0 136:1.0 139:1.0 140:1.0 142:1.0 147:1.0 151:1.0 152:1.0 153:1.0 154:1.0 155:1.0 164:1.0 166:1.0 173:1.0 175:1.0 183:1.0 185:1.0 189:1.0 192:1.0 194:1.0 198:1.0 201:1.0 203:1.0 205:1.0 206:1.0 210:1.0 211:1.0 212:1.0 213:1.0 214:1.0 216:1.0 217:1.0 218:1.0 220:1.0 221:1.0 227:1.0 228:1.0 229:1.0 231:1.0 232:1.0 233:1.0 234:1.0 235:1.0 236:1.0 241:1.0 243:1.0 
1.0 1.0 1.0 1.0 1.0 1.0 1.0 1.0 1.0 1.0 1.0 1.0 1.0 1.0 1.0 1.0 1.0 1.0 1.0 1.0 1.0 1.0 3:1.0 4:1.0 7:1.0 8:1.0 15:1.0 21:1.0 36:1.0 37:1.0 43:1.0 49:1.0 50:1.0 53:1.0 57:1.0 64:1.0 68:1.0 69:1.0 73:1.0 76:1.0 81:1.0 84:1.0 88:1.0 94:1.0 98:1.0 104:1.0 108:1.0 116:1.0 120:1.0 125:1.0 128:1.0 136:1.0 141:1.0 146:1.0 149:1.0 150:1.0 151:1.0 152:1.0 154:1.0 171:1.0 185:1.0 187:1.0 192:1.0 198:1.0 203:1.0 204:1.0 208:1.0 210:1.0 213:1.0 232:1.0 
1.0 1.0 1.0 1.0 1.0 1.0 1.0 1.0 1.0 1.0 1.0 1.0 1.0 1.0 1.0 1.0 1.0 1.0 1.0 1.0 1.0 1.0 0:1.0 3:1.0 4:1.0 7:1.0 9:1.0 11:1.0 15:1.0 23:1.0 26:1.0 27:1.0 30:1.0 33:1.0 36:1.0 37:1.0 43:1.0 44:1.0 49:1.0 50:1.0 56:1.0 57:1.0 59:1.0 60:1.0 63:1.0 64:1.0 65:1.0 69:1.0 71:1.0 73:1.0 76:1.0 81:1.0 88:1.0 89:1.0 91:1.0 92:1.0 94:1.0 95:1.0 97:1.0 100:1.0 107:1.0 108:1.0 109:1.0 112:1.0 114:1.0 119:1.0 120:1.0 122:1.0 127:1.0 128:1.0 136:1.0 140:1.0 143:1.0 146:1.0 148:1.0 149:1.0 151:1.0 154:1.0 173:1.0 175:1.0 185:1.0 192:1.0 198:1.0 201:1.0 203:1.0 205:1.0 207:1.0 210:1.0 213:1.0 214:1.0 217:1.0 220:1.0 225:1.0 228:1.0 231:1.0 232:1.0 233:1.0 236:1.0 239:1.0 241:1.0 243:1.0 
0.0 0.0 0.3407377939702374 0.6178964817041956 0.0 0.5686465483684139 0.0 0.0 0.013655562585345185 0.5771715194711202 1.0 0.0 0.0 1.0 0.0 0.5177934010287346 0.12608299526828823 1.0 1.0 0.0 0.0 0.0 2:1.0 3:1.0 4:1.0 6:1.0 8:1.0 9:1.0 10:1.0 11:1.0 12:1.0 15:1.0 21:1.0 23:1.0 29:1.0 30:1.0 31:1.0 32:1.0 35:1.0 37:1.0 39:1.0 40:1.0 44:1.0 46:1.0 49:1.0 50:1.0 51:1.0 56:1.0 60:1.0 63:1.0 64:1.0 66:1.0 70:1.0 73:1.0 76:1.0 81:1.0 82:1.0 83:1.0 87:1.0 91:1.0 92:1.0 99:1.0 100:1.0 103:1.0 104:1.0 105:1.0 106:1.0 108:1.0 109:1.0 113:1.0 117:1.0 119:1.0 120:1.0 123:1.0 125:1.0 126:1.0 127:1.0 128:1.0 136:1.0 139:1.0 140:1.0 142:1.0 146:1.0 147:1.0 148:1.0 149:1.0 150:1.0 151:1.0 154:1.0 155:1.0 156:1.0 164:1.0 173:1.0 175:1.0 176:1.0 177:1.0 183:1.0 184:1.0 185:1.0 187:1.0 192:1.0 197:1.0 199:1.0 201:1.0 203:1.0 204:1.0 205:1.0 210:1.0 212:1.0 213:1.0 216:1.0 218:1.0 219:1.0 220:1.0 227:1.0 228:1.0 229:1.0 231:1.0 232:1.0 233:1.0 234:1.0 237:1.0 238:1.0 241:1.0 
1.0 1.0 0.0 1.0 1.0 0.43538610675130446 1.0 1.0 0.34254080940945236 0.60654360860615 0.0 1.0 1.0 1.0 1.0 0.6083243070098098 1.0 0.4288412069684034 1.0 1.0 0.39448107885904865 1.0 3:1.0 4:1.0 6:1.0 23:1.0 28:1.0 30:1.0 44:1.0 52:1.0 60:1.0 63:1.0 64:1.0 73:1.0 76:1.0 77:1.0 81:1.0 87:1.0 92:1.0 100:1.0 102:1.0 103:1.0 109:1.0 112:1.0 113:1.0 114:1.0 120:1.0 127:1.0 137:1.0 139:1.0 145:1.0 146:1.0 147:1.0 148:1.0 149:1.0 155:1.0 175:1.0 183:1.0 192:1.0 204:1.0 208:1.0 213:1.0 218:1.0 220:1.0 227:1.0 231:1.0 232:1.0 
1.0 0.5675624764539392 1.0 1.0 1.0 0.6345320677151264 0.7488058658415186 1.0 1.0 1.0 1.0 1.0 0.5622921697962189 1.0 0.7153677865864975 1.0 1.0 1.0 1.0 0.6989600890219535 0.9368823412851595 1.0 2:1.0 3:1.0 4:1.0 6:1.0 7:1.0 8:1.0 9:1.0 10:1.0 11:1.0 14:1.0 15:1.0 17:1.0 18:1.0 22:1.0 25:1.0 26:1.0 30:1.0 31:1.0 32:1.0 36:1.0 37:1.0 38:1.0 39:1.0 44:1.0 46:1.0 49:1.0 50:1.0 51:1.0 53:1.0 56:1.0 60:1.0 62:1.0 64:1.0 65:1.0 69:1.0 71:1.0 73:1.0 76:1.0 77:1.0 81:1.0 82:1.0 83:1.0 84:1.0 91:1.0 92:1.0 93:1.0 95:1.0 97:1.0 98:1.0 99:1.0 100:1.0 103:1.0 104:1.0 105:1.0 106:1.0 108:1.0 109:1.0 112:1.0 113:1.0 114:1.0 116:1.0 119:1.0 120:1.0 125:1.0 126:1.0 127:1.0 128:1.0 131:1.0 132:1.0 133:1.0 134:1.0 135:1.0 136:1.0 139:1.0 141:1.0 142:1.0 143:1.0 145:1.0 146:1.0 147:1.0 149:1.0 150:1.0 151:1.0 152:1.0 154:1.0 155:1.0 156:1.0 165:1.0 170:1.0 171:1.0 174:1.0 175:1.0 181:1.0 183:1.0 184:1.0 185:1.0 187:1.0 194:1.0 197:1.0 201:1.0 202:1.0 203:1.0 204:1.0 205:1.0 207:1.0 209:1.0 210:1.0 213:1.0 216:1.0 218:1.0 219:1.0 220:1.0 222:1.0 224:1.0 227:1.0 228:1.0 230:1.0 231:1.0 235:1.0 236:1.0 237:1.0 238:1.0 243:1.0 
1.0 0.1761600520850272 0.0 0.0 1.0 0.0 1.0 0.35886457326278576 0.0 0.0 0.0 0.26531582171113915 1.0 1.0 1.0 0.0 1.0 0.9050343937912427 1.0 1.0 0.0 0.0 2:1.0 3:1.0 4:1.0 6:1.0 7:1.0 8:1.0 9:1.0 14:1.0 15:1.0 17:1.0 25:1.0 30:1.0 31:1.0 32:1.0 33:1.0 37:1.0 49:1.0 50:1.0 51:1.0 52:1.0 56:1.0 60:1.0 63:1.0 64:1.0 68:1.0 69:1.0 70:1.0 73:1.0 74:1.0 76:1.0 77:1.0 81:1.0 86:1.0 87:1.0 88:1.0 89:1.0 90:1.0 91:1.0 92:1.0 97:1.0 100:1.0 102:1.0 103:1.0 105:1.0 108:1.0 109:1.0 112:1.0 113:1.0 114:1.0 120:1.0 121:1.0 123:1.0 126:1.0 128:1.0 133:1.0 135:1.0 136:1.0 139:1.0 140:1.0 145:1.0 146:1.0 147:1.0 148:1.0 149:1.0 150:1.0 151:1.0 154:1.0 156:1.0 164:1.0 165:1.0 166:1.0 171:1.0 174:1.0 175:1.0 183:1.0 184:1.0 185:1.0 189:1.0 192:1.0 193:1.0 198:1.0 199:1.0 201:1.0 204:1.0 205:1.0 206:1.0 207:1.0 210:1.0 211:1.0 213:1.0 218:1.0 219:1.0 220:1.0 224:1.0 228:1.0 231:1.0 232:1.0 233:1.0 235:1.0 236:1.0 239:1.0 
1.0 0.3038596095589689 0.056074714268295425 1.0 1.0 0.0 1.0 1.0 0.22514955793319988 1.0 0.0 1.0 1.0 1.0 1.0 0.9055728538166039 1.0 1.0 0.581544143049283 0.6717895709918196 0.0 0.4176929165675642 3:1.0 4:1.0 6:1.0 8:1.0 9:1.0 14:1.0 15:1.0 23:1.0 24:1.0 25:1.0 26:1.0 28:1.0 32:1.0 33:1.0 35:1.0 38:1.0 44:1.0 49:1.0 50:1.0 51:1.0 52:1.0 63:1.0 64:1.0 67:1.0 68:1.0 69:1.0 70:1.0 73:1.0 76:1.0 77:1.0 81:1.0 82:1.0 91:1.0 92:1.0 96:1.0 97:1.0 100:1.0 102:1.0 103:1.0 105:1.0 106:1.0 108:1.0 109:1.0 110:1.0 118:1.0 120:1.0 122:1.0 125:1.0 126:1.0 127:1.0 128:1.0 131:1.0 132:1.0 136:1.0 139:1.0 140:1.0 146:1.0 147:1.0 153:1.0 154:1.0 155:1.0 156:1.0 171:1.0 173:1.0 175:1.0 176:1.0 183:1.0 184:1.0 185:1.0 193:1.0 194:1.0 201:1.0 203:1.0 204:1.0 207:1.0 210:1.0 211:1.0 214:1.0 216:1.0 218:1.0 219:1.0 224:1.0 228:1.0 231:1.0 232:1.0 233:1.0 234:1.0 235:1.0 236:1.0 
1.0 1.0 0.4346988388011745 1.0 1.0 1.0 1.0 1.0 1.0 1.0 1.0 1.0 1.0 0.20726417282956897 1.0 1.0 1.0 1.0 1.0 0.674951657584947 1.0 1.0 2:1.0 3:1.0 4:1.0 6:1.0 7:1.0 8:1.0 9:1.0 14:1.0 15:1.0 23:1.0 30:1.0 31:1.0 32:1.0 37:1.0 44:1.0 46:1.0 49:1.0 50:1.0 54:1.0 58:1.0 64:1.0 70:1.0 73:1.0 76:1.0 81:1.0 91:1.0 92:1.0 97:1.0 100:1.0 102:1.0 107:1.0 108:1.0 109:1.0 112:1.0 117:1.0 120:1.0 128:1.0 135:1.0 136:1.0 139:1.0 140:1.0 142:1.0 146:1.0 147:1.0 156:1.0 161:1.0 164:1.0 171:1.0 173:1.0 175:1.0 184:1.0 186:1.0 187:1.0 192:1.0 204:1.0 211:1.0 213:1.0 218:1.0 219:1.0 220:1.0 227:1.0 228:1.0 231:1.0 232:1.0 233:1.0 242:1.0 243:1.0 
1.0 1.0 0.3028146940545317 1.0 1.0 0.5654160895521685 1.0 1.0 1.0 1.0 1.0 1.0 1.0 1.0 1.0 1.0 1.0 0.9500763731353887 1.0 1.0 0.0 1.0 0:1.0 3:1.0 4:1.0 6:1.0 7:1.0 8:1.0 9:1.0 14:1.0 15:1.0 23:1.0 25:1.0 26:1.0 27:1.0 30:1.0 37:1.0 38:1.0 40:1.0 41:1.0 43:1.0 49:1.0 60:1.0 68:1.0 70:1.0 73:1.0 76:1.0 81:1.0 82:1.0 83:1.0 89:1.0 91:1.0 92:1.0 97:1.0 100:1.0 103:1.0 104:1.0 106:1.0 108:1.0 109:1.0 110:1.0 120:1.0 121:1.0 122:1.0 123:1.0 128:1.0 136:1.0 139:1.0 140:1.0 146:1.0 147:1.0 148:1.0 149:1.0 151:1.0 162:1.0 163:1.0 166:1.0 171:1.0 173:1.0 175:1.0 177:1.0 183:1.0 184:1.0 185:1.0 198:1.0 201:1.0 204:1.0 205:1.0 207:1.0 208:1.0 213:1.0 214:1.0 216:1.0 218:1.0 227:1.0 228:1.0 231:1.0 232:1.0 233:1.0 
1.0 1.0 1.0 1.0 1.0 1.0 1.0 1.0 0.739698626052968 0.0918408868028838 1.0 1.0 1.0 1.0 1.0 0.2728774012442653 1.0 0.9312234102684164 1.0 1.0 1.0 1.0 3:1.0 6:1.0 20:1.0 24:1.0 28:1.0 35:1.0 64:1.0 73:1.0 82:1.0 98:1.0 100:1.0 103:1.0 105:1.0 106:1.0 108:1.0 115:1.0 120:1.0 127:1.0 146:1.0 147:1.0 154:1.0 155:1.0 164:1.0 173:1.0 219:1.0 220:1.0 228:1.0 235:1.0 241:1.0 
1.0 1.0 0.0 0.6435668326818913 1.0 1.0 1.0 1.0 0.0 0.0 0.34097271555072656 0.9052782885813585 1.0 1.0 1.0 0.03802128616871665 1.0 0.9496200662939192 1.0 1.0 1.0 1.0 3:1.0 4:1.0 6:1.0 7:1.0 9:1.0 14:1.0 23:1.0 24:1.0 25:1.0 26:1.0 27:1.0 28:1.0 29:1.0 44:1.0 45:1.0 50:1.0 60:1.0 63:1.0 64:1.0 68:1.0 75:1.0 81:1.0 90:1.0 91:1.0 102:1.0 114:1.0 117:1.0 118:1.0 120:1.0 121:1.0 133:1.0 145:1.0 146:1.0 147:1.0 156:1.0 164:1.0 173:1.0 184:1.0 198:1.0 203:1.0 204:1.0 219:1.0 220:1.0 228:1.0 234:1.0 235:1.0 243:1.0 
1.0 1.0 1.0 1.0 1.0 1.0 1.0 1.0 0.3400103287959792 1.0 1.0 0.587287264771673 1.0 1.0 0.8002445468374874 1.0 1.0 1.0 1.0 1.0 1.0 1.0 3:1.0 4:1.0 6:1.0 7:1.0 8:1.0 9:1.0 14:1.0 15:1.0 16:1.0 17:1.0 18:1.0 20:1.0 23:1.0 24:1.0 26:1.0 27:1.0 28:1.0 29:1.0 30:1.0 31:1.0 32:1.0 33:1.0 37:1.0 44:1.0 45:1.0 46:1.0 48:1.0 49:1.0 50:1.0 51:1.0 52:1.0 56:1.0 59:1.0 60:1.0 62:1.0 63:1.0 64:1.0 68:1.0 73:1.0 76:1.0 77:1.0 78:1.0 81:1.0 82:1.0 83:1.0 86:1.0 88:1.0 89:1.0 90:1.0 91:1.0 92:1.0 95:1.0 98:1.0 99:1.0 100:1.0 101:1.0 102:1.0 103:1.0 105:1.0 108:1.0 109:1.0 110:1.0 111:1.0 112:1.0 113:1.0 114:1.0 116:1.0 117:1.0 118:1.0 119:1.0 120:1.0 121:1.0 125:1.0 127:1.0 128:1.0 131:1.0 133:1.0 135:1.0 136:1.0 139:1.0 142:1.0 145:1.0 146:1.0 147:1.0 149:1.0 151:1.0 154:1.0 155:1.0 156:1.0 164:1.0 166:1.0 173:1.0 180:1.0 181:1.0 183:1.0 184:1.0 185:1.0 187:1.0 189:1.0 192:1.0 198:1.0 200:1.0 201:1.0 202:1.0 204:1.0 205:1.0 206:1.0 207:1.0 208:1.0 211:1.0 213:1.0 217:1.0 218:1.0 219:1.0 220:1.0 223:1.0 225:1.0 227:1.0 231:1.0 232:1.0 234:1.0 239:1.0 240:1.0 
1.0 0.35007813515090486 0.0 0.0 0.450408223751722 0.0 0.7918822500576437 0.004318326811445115 0.0 0.0 0.0 0.0 0.23029882660445214 0.4950769096800258 0.7020630524641044 0.05047638992659551 1.0 0.26450364104052815 0.0 0.0 0.0 0.0 3:1.0 4:1.0 6:1.0 8:1.0 9:1.0 11:1.0 15:1.0 23:1.0 28:1.0 29:1.0 30:1.0 32:1.0 43:1.0 46:1.0 49:1.0 51:1.0 52:1.0 57:1.0 60:1.0 64:1.0 66:1.0 67:1.0 70:1.0 73:1.0 76:1.0 77:1.0 81:1.0 92:1.0 98:1.0 100:1.0 106:1.0 108:1.0 109:1.0 119:1.0 120:1.0 128:1.0 140:1.0 142:1.0 145:1.0 146:1.0 147:1.0 148:1.0 149:1.0 151:1.0 155:1.0 156:1.0 164:1.0 166:1.0 175:1.0 177:1.0 183:1.0 184:1.0 185:1.0 201:1.0 203:1.0 204:1.0 207:1.0 209:1.0 210:1.0 211:1.0 213:1.0 214:1.0 217:1.0 218:1.0 219:1.0 220:1.0 227:1.0 231:1.0 232:1.0 233:1.0 234:1.0 235:1.0 243:1.0 
0.701919302617223 1.0 1.0 1.0 1.0 1.0 0.867983349476915 1.0 1.0 1.0 1.0 1.0 0.19566130934524478 1.0 0.10392989651656473 1.0 1.0 1.0 1.0 1.0 1.0 1.0 2:1.0 3:1.0 4:1.0 6:1.0 7:1.0 8:1.0 9:1.0 10:1.0 11:1.0 12:1.0 13:1.0 14:1.0 15:1.0 18:1.0 19:1.0 20:1.0 21:1.0 23:1.0 24:1.0 25:1.0 28:1.0 29:1.0 30:1.0 31:1.0 32:1.0 34:1.0 35:1.0 38:1.0 39:1.0 40:1.0 41:1.0 43:1.0 44:1.0 46:1.0 47:1.0 48:1.0 49:1.0 50:1.0 51:1.0 52:1.0 56:1.0 57:1.0 58:1.0 59:1.0 60:1.0 61:1.0 62:1.0 63:1.0 64:1.0 65:1.0 66:1.0 68:1.0 69:1.0 70:1.0 72:1.0 73:1.0 75:1.0 76:1.0 77:1.0 79:1.0 81:1.0 82:1.0 83:1.0 84:1.0 86:1.0 87:1.0 88:1.0 89:1.0 90:1.0 91:1.0 92:1.0 94:1.0 95:1.0 97:1.0 98:1.0 99:1.0 100:1.0 101:1.0 102:1.0 103:1.0 104:1.0 105:1.0 106:1.0 107:1.0 108:1.0 109:1.0 110:1.0 112:1.0 113:1.0 114:1.0 115:1.0 116:1.0 117:1.0 119:1.0 120:1.0 121:1.0 122:1.0 123:1.0 126:1.0 127:1.0 128:1.0 129:1.0 130:1.0 131:1.0 132:1.0 133:1.0 134:1.0 135:1.0 136:1.0 139:1.0 140:1.0 141:1.0 142:1.0 144:1.0 145:1.0 146:1.0 147:1.0 148:1.0 149:1.0 150:1.0 151:1.0 152:1.0 153:1.0 154:1.0 155:1.0 156:1.0 159:1.0 160:1.0 161:1.0 164:1.0 166:1.0 167:1.0 168:1.0 169:1.0 170:1.0 173:1.0 175:1.0 177:1.0 178:1.0 180:1.0 181:1.0 183:1.0 184:1.0 185:1.0 186:1.0 187:1.0 190:1.0 191:1.0 192:1.0 193:1.0 194:1.0 195:1.0 197:1.0 198:1.0 201:1.0 202:1.0 203:1.0 204:1.0 205:1.0 206:1.0 207:1.0 208:1.0 209:1.0 210:1.0 212:1.0 213:1.0 214:1.0 215:1.0 216:1.0 217:1.0 218:1.0 219:1.0 220:1.0 222:1.0 223:1.0 225:1.0 227:1.0 228:1.0 230:1.0 231:1.0 232:1.0 233:1.0 234:1.0 235:1.0 237:1.0 238:1.0 241:1.0 242:1.0 243:1.0 
1.0 0.0 1.0 1.0 1.0 1.0 0.15539236326959355 1.0 1.0 1.0 1.0 1.0 0.0 1.0 0.18884856963245594 1.0 1.0 1.0 1.0 1.0 1.0 1.0 0:1.0 2:1.0 3:1.0 4:1.0 6:1.0 7:1.0 8:1.0 9:1.0 10:1.0 11:1.0 12:1.0 13:1.0 14:1.0 15:1.0 18:1.0 19:1.0 20:1.0 21:1.0 22:1.0 23:1.0 24:1.0 25:1.0 28:1.0 29:1.0 30:1.0 31:1.0 32:1.0 33:1.0 34:1.0 35:1.0 37:1.0 38:1.0 39:1.0 40:1.0 43:1.0 44:1.0 46:1.0 47:1.0 48:1.0 49:1.0 50:1.0 51:1.0 52:1.0 53:1.0 54:1.0 56:1.0 57:1.0 58:1.0 59:1.0 60:1.0 61:1.0 62:1.0 63:1.0 64:1.0 65:1.0 66:1.0 67:1.0 68:1.0 69:1.0 70:1.0 72:1.0 73:1.0 74:1.0 75:1.0 76:1.0 77:1.0 79:1.0 81:1.0 82:1.0 83:1.0 84:1.0 85:1.0 86:1.0 87:1.0 88:1.0 89:1.0 90:1.0 91:1.0 92:1.0 94:1.0 95:1.0 97:1.0 98:1.0 99:1.0 100:1.0 101:1.0 102:1.0 103:1.0 104:1.0 105:1.0 106:1.0 107:1.0 108:1.0 109:1.0 110:1.0 112:1.0 113:1.0 114:1.0 115:1.0 116:1.0 117:1.0 119:1.0 120:1.0 121:1.0 122:1.0 123:1.0 125:1.0 126:1.0 127:1.0 128:1.0 129:1.0 130:1.0 131:1.0 132:1.0 133:1.0 134:1.0 135:1.0 136:1.0 139:1.0 140:1.0 141:1.0 142:1.0 144:1.0 145:1.0 146:1.0 147:1.0 148:1.0 149:1.0 150:1.0 151:1.0 153:1.0 154:1.0 155:1.0 156:1.0 159:1.0 160:1.0 161:1.0 164:1.0 166:1.0 167:1.0 168:1.0 169:1.0 170:1.0 171:1.0 173:1.0 175:1.0 177:1.0 178:1.0 179:1.0 180:1.0 181:1.0 183:1.0 184:1.0 185:1.0 186:1.0 187:1.0 190:1.0 191:1.0 192:1.0 193:1.0 194:1.0 195:1.0 196:1.0 197:1.0 198:1.0 201:1.0 202:1.0 203:1.0 204:1.0 205:1.0 206:1.0 207:1.0 208:1.0 209:1.0 210:1.0 211:1.0 212:1.0 213:1.0 214:1.0 215:1.0 216:1.0 217:1.0 218:1.0 219:1.0 220:1.0 222:1.0 223:1.0 225:1.0 227:1.0 228:1.0 230:1.0 231:1.0 232:1.0 233:1.0 234:1.0 235:1.0 236:1.0 237:1.0 238:1.0 241:1.0 242:1.0 243:1.0 
1.0 1.0 0.1788324503846211 0.14272755138215257 1.0 0.0 1.0 0.8400626102146892 0.7388934550807269 0.32325626104624455 0.0 0.9856095399037277 1.0 1.0 1.0 1.0 1.0 1.0 1.0 0.8993798964422715 0.0 0.4831558724620069 3:1.0 4:1.0 6:1.0 7:1.0 8:1.0 9:1.0 15:1.0 23:1.0 30:1.0 31:1.0 32:1.0 35:1.0 37:1.0 38:1.0 43:1.0 44:1.0 49:1.0 50:1.0 51:1.0 52:1.0 60:1.0 64:1.0 67:1.0 68:1.0 69:1.0 73:1.0 74:1.0 76:1.0 77:1.0 79:1.0 81:1.0 87:1.0 89:1.0 90:1.0 91:1.0 92:1.0 97:1.0 100:1.0 103:1.0 106:1.0 108:1.0 109:1.0 112:1.0 114:1.0 115:1.0 117:1.0 118:1.0 120:1.0 121:1.0 122:1.0 126:1.0 127:1.0 132:1.0 136:1.0 139:1.0 140:1.0 145:1.0 146:1.0 147:1.0 151:1.0 154:1.0 155:1.0 164:1.0 173:1.0 174:1.0 175:1.0 177:1.0 180:1.0 181:1.0 183:1.0 184:1.0 185:1.0 192:1.0 201:1.0 204:1.0 205:1.0 212:1.0 213:1.0 214:1.0 217:1.0 218:1.0 220:1.0 228:1.0 231:1.0 232:1.0 233:1.0 234:1.0 235:1.0 236:1.0 241:1.0 242:1.0 
0.9947535359799573 0.5541265637817306 1.0 1.0 1.0 0.19624031943875647 1.0 0.43882759204413574 1.0 1.0 1.0 0.0 0.5763555565601207 1.0 0.10759304398195173 1.0 1.0 1.0 1.0 0.9730580562954867 0.0 0.8522747835954352 0:1.0 3:1.0 4:1.0 5:1.0 6:1.0 7:1.0 8:1.0 9:1.0 11:1.0 14:1.0 15:1.0 19:1.0 20:1.0 22:1.0 23:1.0 25:1.0 26:1.0 29:1.0 31:1.0 32:1.0 33:1.0 35:1.0 36:1.0 37:1.0 39:1.0 40:1.0 43:1.0 44:1.0 45:1.0 46:1.0 49:1.0 50:1.0 51:1.0 52:1.0 57:1.0 60:1.0 61:1.0 62:1.0 63:1.0 64:1.0 65:1.0 66:1.0 69:1.0 70:1.0 73:1.0 76:1.0 81:1.0 82:1.0 83:1.0 87:1.0 91:1.0 92:1.0 94:1.0 97:1.0 98:1.0 99:1.0 100:1.0 103:1.0 105:1.0 106:1.0 107:1.0 108:1.0 109:1.0 112:1.0 113:1.0 114:1.0 115:1.0 116:1.0 117:1.0 118:1.0 119:1.0 120:1.0 125:1.0 126:1.0 127:1.0 128:1.0 131:1.0 132:1.0 136:1.0 138:1.0 139:1.0 140:1.0 142:1.0 143:1.0 145:1.0 146:1.0 147:1.0 148:1.0 149:1.0 150:1.0 151:1.0 152:1.0 153:1.0 154:1.0 155:1.0 156:1.0 159:1.0 160:1.0 164:1.0 168:1.0 170:1.0 172:1.0 173:1.0 174:1.0 175:1.0 177:1.0 181:1.0 183:1.0 185:1.0 192:1.0 193:1.0 194:1.0 198:1.0 199:1.0 200:1.0 201:1.0 203:1.0 204:1.0 205:1.0 207:1.0 208:1.0 209:1.0 210:1.0 211:1.0 212:1.0 213:1.0 214:1.0 217:1.0 218:1.0 219:1.0 220:1.0 227:1.0 228:1.0 231:1.0 232:1.0 233:1.0 234:1.0 235:1.0 236:1.0 237:1.0 241:1.0 243:1.0 
1.0 0.0 0.0 1.0 1.0 0.0 1.0 0.6647875522155389 0.0 1.0 0.0 0.8873796142181064 1.0 1.0 1.0 1.0 1.0 0.0 1.0 1.0 0.0 1.0 0:1.0 2:1.0 3:1.0 4:1.0 6:1.0 7:1.0 8:1.0 9:1.0 10:1.0 14:1.0 15:1.0 23:1.0 25:1.0 30:1.0 31:1.0 32:1.0 34:1.0 39:1.0 43:1.0 47:1.0 49:1.0 50:1.0 51:1.0 52:1.0 56:1.0 62:1.0 64:1.0 68:1.0 69:1.0 70:1.0 73:1.0 76:1.0 77:1.0 81:1.0 82:1.0 86:1.0 88:1.0 89:1.0 90:1.0 91:1.0 92:1.0 97:1.0 100:1.0 102:1.0 103:1.0 105:1.0 106:1.0 108:1.0 109:1.0 111:1.0 112:1.0 116:1.0 117:1.0 118:1.0 120:1.0 122:1.0 126:1.0 127:1.0 128:1.0 131:1.0 132:1.0 133:1.0 134:1.0 135:1.0 136:1.0 139:1.0 140:1.0 141:1.0 142:1.0 145:1.0 146:1.0 147:1.0 148:1.0 149:1.0 150:1.0 151:1.0 156:1.0 164:1.0 173:1.0 175:1.0 177:1.0 184:1.0 185:1.0 189:1.0 198:1.0 200:1.0 201:1.0 204:1.0 205:1.0 206:1.0 210:1.0 212:1.0 213:1.0 216:1.0 217:1.0 218:1.0 219:1.0 220:1.0 224:1.0 228:1.0 230:1.0 231:1.0 232:1.0 233:1.0 234:1.0 235:1.0 236:1.0 241:1.0 242:1.0 243:1.0 
1.0 1.0 1.0 1.0 1.0 0.0 1.0 1.0 1.0 1.0 1.0 1.0 1.0 1.0 1.0 1.0 1.0 1.0 1.0 1.0 1.0 1.0 2:1.0 3:1.0 4:1.0 5:1.0 6:1.0 7:1.0 8:1.0 9:1.0 10:1.0 11:1.0 14:1.0 15:1.0 17:1.0 18:1.0 19:1.0 20:1.0 22:1.0 23:1.0 24:1.0 25:1.0 26:1.0 27:1.0 28:1.0 29:1.0 30:1.0 31:1.0 32:1.0 33:1.0 34:1.0 35:1.0 36:1.0 37:1.0 38:1.0 39:1.0 40:1.0 43:1.0 44:1.0 46:1.0 47:1.0 49:1.0 50:1.0 51:1.0 52:1.0 53:1.0 54:1.0 55:1.0 56:1.0 59:1.0 60:1.0 62:1.0 63:1.0 64:1.0 66:1.0 67:1.0 68:1.0 69:1.0 70:1.0 73:1.0 74:1.0 76:1.0 77:1.0 79:1.0 81:1.0 82:1.0 83:1.0 84:1.0 86:1.0 87:1.0 88:1.0 89:1.0 90:1.0 91:1.0 92:1.0 96:1.0 97:1.0 98:1.0 99:1.0 100:1.0 102:1.0 103:1.0 104:1.0 105:1.0 106:1.0 108:1.0 109:1.0 112:1.0 113:1.0 114:1.0 115:1.0 116:1.0 117:1.0 118:1.0 119:1.0 120:1.0 121:1.0 122:1.0 123:1.0 126:1.0 127:1.0 128:1.0 131:1.0 132:1.0 133:1.0 134:1.0 135:1.0 136:1.0 138:1.0 139:1.0 140:1.0 141:1.0 142:1.0 143:1.0 145:1.0 146:1.0 147:1.0 148:1.0 149:1.0 150:1.0 151:1.0 152:1.0 153:1.0 154:1.0 155:1.0 156:1.0 157:1.0 162:1.0 163:1.0 164:1.0 165:1.0 166:1.0 171:1.0 172:1.0 173:1.0 175:1.0 177:1.0 181:1.0 183:1.0 184:1.0 185:1.0 188:1.0 189:1.0 190:1.0 192:1.0 194:1.0 198:1.0 199:1.0 200:1.0 201:1.0 202:1.0 203:1.0 204:1.0 205:1.0 207:1.0 208:1.0 209:1.0 210:1.0 211:1.0 212:1.0 213:1.0 214:1.0 216:1.0 217:1.0 218:1.0 219:1.0 220:1.0 222:1.0 224:1.0 225:1.0 226:1.0 227:1.0 228:1.0 229:1.0 230:1.0 231:1.0 232:1.0 233:1.0 234:1.0 235:1.0 236:1.0 237:1.0 238:1.0 239:1.0 241:1.0 242:1.0 243:1.0 
1.0 0.0 0.0 0.0 0.5505407340753427 0.0 1.0 1.0 0.0 0.0 0.0 1.0 1.0 1.0 1.0 0.0 1.0 0.0 0.4035843550840357 0.29411888375561146 0.0 0.0 2:1.0 3:1.0 4:1.0 6:1.0 7:1.0 8:1.0 9:1.0 14:1.0 15:1.0 20:1.0 23:1.0 24:1.0 25:1.0 26:1.0 27:1.0 30:1.0 32:1.0 33:1.0 34:1.0 35:1.0 38:1.0 43:1.0 44:1.0 45:1.0 46:1.0 47:1.0 49:1.0 50:1.0 51:1.0 52:1.0 53:1.0 56:1.0 59:1.0 60:1.0 61:1.0 62:1.0 63:1.0 64:1.0 65:1.0 66:1.0 67:1.0 69:1.0 70:1.0 73:1.0 74:1.0 76:1.0 77:1.0 81:1.0 82:1.0 83:1.0 88:1.0 89:1.0 90:1.0 91:1.0 97:1.0 98:1.0 100:1.0 102:1.0 103:1.0 105:1.0 108:1.0 109:1.0 112:1.0 113:1.0 114:1.0 118:1.0 119:1.0 120:1.0 121:1.0 122:1.0 123:1.0 126:1.0 127:1.0 128:1.0 131:1.0 133:1.0 136:1.0 139:1.0 140:1.0 142:1.0 145:1.0 146:1.0 147:1.0 148:1.0 149:1.0 151:1.0 154:1.0 155:1.0 156:1.0 164:1.0 166:1.0 170:1.0 171:1.0 172:1.0 173:1.0 175:1.0 177:1.0 178:1.0 184:1.0 185:1.0 187:1.0 192:1.0 193:1.0 194:1.0 198:1.0 201:1.0 203:1.0 204:1.0 205:1.0 207:1.0 210:1.0 211:1.0 212:1.0 213:1.0 214:1.0 216:1.0 217:1.0 218:1.0 219:1.0 220:1.0 223:1.0 224:1.0 226:1.0 227:1.0 228:1.0 231:1.0 232:1.0 233:1.0 234:1.0 235:1.0 236:1.0 241:1.0 242:1.0 243:1.0 
1.0 1.0 1.0 1.0 1.0 1.0 1.0 1.0 1.0 1.0 1.0 1.0 1.0 1.0 1.0 1.0 1.0 1.0 1.0 1.0 1.0 1.0 0:1.0 2:1.0 4:1.0 7:1.0 8:1.0 9:1.0 10:1.0 14:1.0 15:1.0 21:1.0 23:1.0 25:1.0 26:1.0 29:1.0 30:1.0 33:1.0 34:1.0 35:1.0 36:1.0 40:1.0 41:1.0 43:1.0 44:1.0 46:1.0 49:1.0 50:1.0 51:1.0 53:1.0 54:1.0 57:1.0 60:1.0 62:1.0 64:1.0 66:1.0 69:1.0 70:1.0 73:1.0 74:1.0 76:1.0 77:1.0 81:1.0 84:1.0 87:1.0 91:1.0 92:1.0 97:1.0 98:1.0 99:1.0 100:1.0 102:1.0 107:1.0 109:1.0 112:1.0 113:1.0 114:1.0 116:1.0 117:1.0 120:1.0 121:1.0 122:1.0 123:1.0 124:1.0 128:1.0 131:1.0 133:1.0 134:1.0 135:1.0 140:1.0 142:1.0 146:1.0 147:1.0 148:1.0 150:1.0 151:1.0 152:1.0 154:1.0 155:1.0 159:1.0 160:1.0 161:1.0 162:1.0 163:1.0 166:1.0 169:1.0 170:1.0 171:1.0 172:1.0 173:1.0 174:1.0 177:1.0 181:1.0 182:1.0 183:1.0 184:1.0 185:1.0 188:1.0 190:1.0 191:1.0 193:1.0 195:1.0 196:1.0 197:1.0 201:1.0 203:1.0 207:1.0 209:1.0 211:1.0 213:1.0 216:1.0 217:1.0 218:1.0 219:1.0 220:1.0 227:1.0 228:1.0 229:1.0 230:1.0 231:1.0 232:1.0 233:1.0 234:1.0 235:1.0 241:1.0 242:1.0 243:1.0 
1.0 1.0 1.0 1.0 1.0 1.0 1.0 1.0 1.0 1.0 1.0 1.0 1.0 1.0 1.0 1.0 1.0 0.7363218970435487 1.0 1.0 1.0 1.0 2:1.0 4:1.0 6:1.0 9:1.0 14:1.0 15:1.0 20:1.0 25:1.0 29:1.0 30:1.0 31:1.0 33:1.0 35:1.0 36:1.0 37:1.0 46:1.0 49:1.0 52:1.0 61:1.0 62:1.0 63:1.0 64:1.0 68:1.0 69:1.0 70:1.0 71:1.0 73:1.0 75:1.0 76:1.0 81:1.0 86:1.0 91:1.0 92:1.0 98:1.0 99:1.0 100:1.0 101:1.0 103:1.0 106:1.0 108:1.0 109:1.0 112:1.0 113:1.0 114:1.0 115:1.0 118:1.0 119:1.0 120:1.0 121:1.0 123:1.0 127:1.0 128:1.0 131:1.0 136:1.0 139:1.0 142:1.0 145:1.0 149:1.0 151:1.0 166:1.0 175:1.0 183:1.0 184:1.0 185:1.0 190:1.0 191:1.0 201:1.0 205:1.0 206:1.0 207:1.0 210:1.0 214:1.0 218:1.0 220:1.0 224:1.0 227:1.0 228:1.0 229:1.0 231:1.0 232:1.0 234:1.0 241:1.0 
1.0 0.0 0.0 0.0 0.0 0.0 1.0 1.0 0.4464899549381675 0.0 0.0 1.0 1.0 1.0 0.20989303908604398 0.0 0.0 0.0 0.0 0.0 0.0 0.0 3:1.0 4:1.0 6:1.0 7:1.0 8:1.0 9:1.0 14:1.0 15:1.0 23:1.0 26:1.0 27:1.0 28:1.0 29:1.0 30:1.0 31:1.0 32:1.0 40:1.0 41:1.0 43:1.0 44:1.0 46:1.0 49:1.0 50:1.0 51:1.0 52:1.0 53:1.0 56:1.0 60:1.0 64:1.0 73:1.0 76:1.0 81:1.0 88:1.0 89:1.0 90:1.0 91:1.0 92:1.0 97:1.0 98:1.0 100:1.0 102:1.0 105:1.0 106:1.0 108:1.0 109:1.0 110:1.0 112:1.0 115:1.0 118:1.0 119:1.0 120:1.0 122:1.0 126:1.0 133:1.0 136:1.0 139:1.0 140:1.0 145:1.0 146:1.0 147:1.0 148:1.0 149:1.0 151:1.0 155:1.0 156:1.0 163:1.0 164:1.0 166:1.0 171:1.0 172:1.0 173:1.0 175:1.0 176:1.0 183:1.0 184:1.0 185:1.0 198:1.0 201:1.0 203:1.0 204:1.0 205:1.0 210:1.0 213:1.0 214:1.0 217:1.0 218:1.0 219:1.0 220:1.0 227:1.0 228:1.0 231:1.0 232:1.0 233:1.0 234:1.0 235:1.0 236:1.0 237:1.0 
1.0 1.0 1.0 1.0 1.0 1.0 1.0 1.0 1.0 1.0 1.0 1.0 0.04651101935724413 1.0 1.0 1.0 1.0 1.0 1.0 1.0 1.0 1.0 3:1.0 4:1.0 6:1.0 7:1.0 8:1.0 9:1.0 12:1.0 15:1.0 20:1.0 21:1.0 25:1.0 30:1.0 31:1.0 32:1.0 35:1.0 43:1.0 44:1.0 46:1.0 48:1.0 49:1.0 51:1.0 60:1.0 62:1.0 63:1.0 67:1.0 73:1.0 81:1.0 87:1.0 91:1.0 92:1.0 98:1.0 99:1.0 100:1.0 104:1.0 106:1.0 108:1.0 109:1.0 111:1.0 112:1.0 113:1.0 114:1.0 120:1.0 121:1.0 123:1.0 125:1.0 128:1.0 139:1.0 142:1.0 146:1.0 147:1.0 148:1.0 149:1.0 151:1.0 154:1.0 155:1.0 161:1.0 162:1.0 171:1.0 173:1.0 175:1.0 183:1.0 203:1.0 204:1.0 205:1.0 208:1.0 209:1.0 212:1.0 217:1.0 218:1.0 228:1.0 231:1.0 232:1.0 233:1.0 242:1.0 243:1.0 
1.0 1.0 0.28337989662624197 0.0 0.3602362371291756 0.0 1.0 1.0 0.24152967172494205 0.13917922098924668 0.20566523768059525 0.0 0.665268765844696 1.0 1.0 0.0 1.0 0.44191086052179795 1.0 0.0 0.0 1.0 2:1.0 3:1.0 4:1.0 5:1.0 6:1.0 8:1.0 9:1.0 14:1.0 15:1.0 16:1.0 17:1.0 18:1.0 20:1.0 23:1.0 24:1.0 25:1.0 26:1.0 28:1.0 30:1.0 31:1.0 32:1.0 33:1.0 34:1.0 35:1.0 39:1.0 40:1.0 41:1.0 43:1.0 44:1.0 46:1.0 49:1.0 52:1.0 55:1.0 56:1.0 57:1.0 59:1.0 60:1.0 62:1.0 63:1.0 64:1.0 68:1.0 69:1.0 70:1.0 73:1.0 76:1.0 77:1.0 79:1.0 81:1.0 82:1.0 83:1.0 87:1.0 91:1.0 97:1.0 99:1.0 100:1.0 103:1.0 108:1.0 109:1.0 112:1.0 113:1.0 114:1.0 115:1.0 119:1.0 120:1.0 121:1.0 122:1.0 126:1.0 127:1.0 128:1.0 131:1.0 132:1.0 133:1.0 134:1.0 136:1.0 139:1.0 140:1.0 142:1.0 146:1.0 147:1.0 149:1.0 150:1.0 154:1.0 155:1.0 156:1.0 157:1.0 158:1.0 161:1.0 170:1.0 171:1.0 173:1.0 175:1.0 183:1.0 184:1.0 185:1.0 192:1.0 193:1.0 199:1.0 200:1.0 201:1.0 202:1.0 203:1.0 204:1.0 205:1.0 207:1.0 209:1.0 210:1.0 211:1.0 212:1.0 213:1.0 216:1.0 218:1.0 219:1.0 220:1.0 227:1.0 228:1.0 231:1.0 232:1.0 233:1.0 237:1.0 238:1.0 
1.0 0.7310587440041374 0.1449598453375458 0.5952631814615509 1.0 0.9892034106818286 1.0 1.0 1.0 1.0 0.4907606586089166 1.0 1.0 1.0 1.0 0.6140512125299774 1.0 0.0 1.0 1.0 1.0 1.0 0:1.0 2:1.0 3:1.0 4:1.0 6:1.0 7:1.0 8:1.0 9:1.0 14:1.0 15:1.0 21:1.0 23:1.0 26:1.0 27:1.0 28:1.0 30:1.0 32:1.0 33:1.0 34:1.0 36:1.0 40:1.0 41:1.0 43:1.0 46:1.0 49:1.0 50:1.0 52:1.0 53:1.0 54:1.0 56:1.0 62:1.0 64:1.0 70:1.0 73:1.0 74:1.0 76:1.0 77:1.0 81:1.0 82:1.0 83:1.0 87:1.0 89:1.0 90:1.0 91:1.0 95:1.0 98:1.0 100:1.0 101:1.0 102:1.0 103:1.0 104:1.0 105:1.0 108:1.0 109:1.0 110:1.0 112:1.0 113:1.0 114:1.0 115:1.0 116:1.0 117:1.0 119:1.0 120:1.0 122:1.0 123:1.0 126:1.0 128:1.0 131:1.0 132:1.0 133:1.0 134:1.0 135:1.0 136:1.0 139:1.0 140:1.0 142:1.0 145:1.0 146:1.0 147:1.0 148:1.0 149:1.0 151:1.0 155:1.0 156:1.0 162:1.0 163:1.0 164:1.0 169:1.0 170:1.0 171:1.0 172:1.0 173:1.0 174:1.0 175:1.0 176:1.0 177:1.0 183:1.0 184:1.0 185:1.0 188:1.0 192:1.0 193:1.0 195:1.0 196:1.0 201:1.0 202:1.0 203:1.0 204:1.0 205:1.0 206:1.0 207:1.0 208:1.0 209:1.0 210:1.0 211:1.0 212:1.0 213:1.0 217:1.0 218:1.0 219:1.0 220:1.0 223:1.0 227:1.0 228:1.0 230:1.0 231:1.0 232:1.0 233:1.0 234:1.0 236:1.0 242:1.0 
1.0 1.0 1.0 1.0 1.0 1.0 1.0 1.0 1.0 1.0 1.0 1.0 0.0 1.0 1.0 1.0 1.0 1.0 1.0 1.0 0.878927705248472 1.0 0:1.0 6:1.0 9:1.0 15:1.0 23:1.0 28:1.0 30:1.0 33:1.0 34:1.0 35:1.0 36:1.0 40:1.0 44:1.0 46:1.0 47:1.0 49:1.0 50:1.0 53:1.0 64:1.0 67:1.0 71:1.0 73:1.0 76:1.0 77:1.0 81:1.0 88:1.0 91:1.0 92:1.0 98:1.0 99:1.0 100:1.0 106:1.0 112:1.0 114:1.0 120:1.0 121:1.0 125:1.0 128:1.0 132:1.0 139:1.0 141:1.0 142:1.0 146:1.0 148:1.0 149:1.0 150:1.0 154:1.0 155:1.0 161:1.0 171:1.0 173:1.0 175:1.0 177:1.0 183:1.0 184:1.0 185:1.0 193:1.0 201:1.0 203:1.0 204:1.0 205:1.0 207:1.0 209:1.0 210:1.0 211:1.0 213:1.0 218:1.0 220:1.0 227:1.0 228:1.0 230:1.0 231:1.0 232:1.0 233:1.0 235:1.0 236:1.0 243:1.0 
-1.0 1.0 0.011490850890287124 1.0 1.0 1.0 1.0 1.0 0.0 0.40735718318973874 0.11977562089558655 0.4352830463599509 1.0 1.0 1.0 0.43355792196255 1.0 0.9482882574610494 1.0 1.0 1.0 1.0 3:1.0 4:1.0 6:1.0 30:1.0 32:1.0 49:1.0 52:1.0 63:1.0 76:1.0 77:1.0 81:1.0 88:1.0 89:1.0 90:1.0 103:1.0 105:1.0 108:1.0 109:1.0 114:1.0 115:1.0 120:1.0 126:1.0 136:1.0 139:1.0 140:1.0 145:1.0 146:1.0 193:1.0 201:1.0 204:1.0 210:1.0 219:1.0 228:1.0 231:1.0 239:1.0 
-1.0 0.0 0.0 0.0 0.0 0.0 1.0 1.0 0.0 0.0 0.0 0.0 1.0 1.0 1.0 0.0 0.0 0.0 0.0 1.0 0.0 0.0 3:1.0 4:1.0 6:1.0 9:1.0 10:1.0 15:1.0 23:1.0 25:1.0 26:1.0 30:1.0 33:1.0 35:1.0 37:1.0 38:1.0 40:1.0 43:1.0 44:1.0 49:1.0 51:1.0 63:1.0 64:1.0 66:1.0 68:1.0 69:1.0 70:1.0 73:1.0 74:1.0 76:1.0 77:1.0 81:1.0 86:1.0 87:1.0 88:1.0 91:1.0 92:1.0 96:1.0 97:1.0 100:1.0 101:1.0 102:1.0 103:1.0 104:1.0 105:1.0 108:1.0 109:1.0 112:1.0 115:1.0 116:1.0 117:1.0 118:1.0 120:1.0 126:1.0 127:1.0 128:1.0 132:1.0 133:1.0 134:1.0 136:1.0 139:1.0 140:1.0 142:1.0 145:1.0 146:1.0 147:1.0 148:1.0 149:1.0 151:1.0 155:1.0 164:1.0 166:1.0 173:1.0 175:1.0 183:1.0 185:1.0 196:1.0 201:1.0 204:1.0 205:1.0 207:1.0 211:1.0 213:1.0 214:1.0 217:1.0 219:1.0 220:1.0 224:1.0 227:1.0 231:1.0 232:1.0 233:1.0 235:1.0 236:1.0 241:1.0 243:1.0 
-1.0 1.0 1.0 1.0 1.0 1.0 1.0 1.0 1.0 1.0 1.0 1.0 0.9070796912996228 1.0 1.0 1.0 1.0 1.0 1.0 1.0 1.0 1.0 6:1.0 8:1.0 14:1.0 15:1.0 21:1.0 23:1.0 25:1.0 31:1.0 32:1.0 33:1.0 46:1.0 49:1.0 53:1.0 54:1.0 55:1.0 67:1.0 73:1.0 74:1.0 91:1.0 97:1.0 102:1.0 104:1.0 113:1.0 114:1.0 120:1.0 128:1.0 131:1.0 135:1.0 136:1.0 139:1.0 141:1.0 142:1.0 149:1.0 150:1.0 151:1.0 161:1.0 173:1.0 183:1.0 196:1.0 197:1.0 203:1.0 213:1.0 216:1.0 217:1.0 218:1.0 228:1.0 230:1.0 231:1.0 232:1.0 241:1.0 242:1.0 
